0.000121
0.000001
-0.000119
0.000121
0.000001
-0.000119
0.000001
0.000001
-0.000119
0.000120
0.000121
0.000001
0.000240
0.000240
0.000121
0.000121
0.000240
0.000001
-0.000119
-0.000119
0.000001
-0.000119
-0.000238
-0.000119
-0.000119
-0.000119
-0.000238
0.000001
0.000001
-0.000119
-0.000238
-0.000119
-0.000119
-0.000238
-0.000119
-0.000238
-0.000358
-0.000119
-0.000358
-0.000358
-0.000358
-0.000478
-0.000357
-0.000238
-0.000476
-0.000357
-0.000238
-0.000597
-0.000477
-0.000238
-0.000596
-0.000477
-0.000358
-0.000596
-0.000477
-0.000358
-0.000716
-0.000119
-0.000238
-0.000238
-0.000119
-0.000119
-0.000238
-0.000238
-0.000238
-0.000119
-0.000238
-0.000238
-0.000357
-0.000119
-0.000119
-0.000238
-0.000238
-0.000119
-0.000238
-0.000238
-0.000119
-0.000238
-0.000238
-0.000119
-0.000238
-0.000357
-0.000118
-0.000238
-0.000118
-0.000118
-0.000118
-0.000119
-0.000119
-0.000119
-0.000358
-0.000238
-0.000238
-0.000477
-0.000477
-0.000477
-0.000597
-0.000477
-0.000477
-0.000477
-0.000358
-0.000358
-0.000597
-0.000477
-0.000477
-0.000477
-0.000238
-0.000238
-0.000477
-0.000238
-0.000238
-0.000357
-0.000238
-0.000238
-0.000238
-0.000118
-0.000238
-0.000476
-0.000357
-0.000357
-0.000596
-0.000477
-0.000477
-0.000357
-0.000357
-0.000238
-0.000357
-0.000238
-0.000238
-0.000238
-0.000119
-0.000119
-0.000357
-0.000238
-0.000238
-0.000357
-0.000357
-0.000238
-0.000357
-0.000238
-0.000238
-0.000119
-0.000119
-0.000119
-0.000118
0.000001
0.000001
-0.000238
-0.000119
-0.000119
-0.000238
-0.000238
-0.000357
-0.000238
-0.000119
-0.000238
-0.000477
-0.000357
-0.000238
-0.000477
-0.000358
-0.000358
-0.000358
-0.000238
-0.000238
-0.000477
-0.000358
-0.000358
-0.000238
-0.000358
-0.000238
-0.000238
-0.000238
-0.000238
-0.000119
-0.000119
0.000001
0.000000
0.000000
0.000000
-0.000119
-0.000119
-0.000119
-0.000119
-0.000119
-0.000119
-0.000119
-0.000119
0.000000
-0.000119
-0.000119
-0.000119
0.000121
0.000001
-0.000119
0.000001
0.000001
-0.000119
-0.000119
0.000121
-0.000119
0.000240
0.000240
0.000001
0.000360
0.000480
0.000240
0.000360
0.000360
0.000121
0.000001
0.000121
0.000121
-0.000119
0.000001
-0.000119
-0.000119
-0.000119
-0.000119
0.000001
0.000001
0.000001
-0.000238
-0.000119
0.000001
-0.000238
-0.000119
-0.000119
-0.000238
-0.000239
-0.000478
-0.000238
-0.000358
-0.000597
-0.000477
-0.000358
-0.000597
-0.000357
-0.000357
-0.000357
-0.000357
-0.000238
-0.000477
-0.000357
-0.000238
-0.000238
-0.000477
-0.000358
-0.000477
-0.000238
-0.000238
-0.000238
-0.000119
-0.000119
-0.000357
-0.000238
-0.000238
-0.000238
-0.000238
-0.000238
-0.000238
0.000001
-0.000238
-0.000238
-0.000119
-0.000119
-0.000238
-0.000119
-0.000119
-0.000238
-0.000118
-0.000118
-0.000357
-0.000118
-0.000119
-0.000238
-0.000119
0.000001
-0.000119
-0.000119
0.000001
-0.000119
-0.000238
-0.000119
-0.000119
-0.000358
-0.000238
-0.000119
-0.000238
-0.000119
-0.000238
-0.000358
-0.000238
-0.000238
-0.000597
-0.000477
-0.000477
-0.000477
-0.000358
-0.000358
-0.000477
-0.000358
-0.000358
-0.000357
-0.000238
-0.000238
-0.000477
-0.000357
-0.000477
-0.000477
-0.000357
-0.000238
-0.000716
-0.000597
-0.000477
-0.000477
-0.000357
-0.000358
-0.000357
-0.000238
-0.000238
-0.000357
-0.000238
-0.000238
-0.000357
-0.000238
-0.000238
-0.000357
-0.000238
-0.000238
-0.000238
-0.000238
-0.000238
-0.000119
-0.000118
-0.000119
0.000001
-0.000118
0.000001
-0.000238
-0.000119
-0.000238
-0.000357
-0.000238
-0.000357
-0.000238
0.000001
-0.000238
-0.000477
-0.000238
-0.000119
-0.000597
-0.000477
-0.000358
-0.000357
-0.000358
-0.000358
-0.000477
-0.000358
-0.000358
-0.000358
-0.000358
-0.000238
-0.000238
-0.000119
-0.000119
-0.000119
-0.000238
0.000001
0.000000
0.000001
0.000120
0.000120
0.000120
0.000120
0.000001
0.000001
0.000120
0.000001
0.000001
0.000120
-0.000119
-0.000119
0.000001
0.000001
0.000001
-0.000119
0.000001
0.000240
-0.000119
0.000121
0.000240
-0.000119
0.000121
0.000240
0.000121
0.000240
0.000240
0.000121
0.000240
0.000360
0.000121
-0.000119
0.000240
0.000121
-0.000119
0.000001
0.000001
0.000001
0.000120
0.000121
-0.000119
0.000001
-0.000119
-0.000358
-0.000238
-0.000119
-0.000238
-0.000119
-0.000119
-0.000358
-0.000239
-0.000358
-0.000478
-0.000358
-0.000478
-0.000358
-0.000238
-0.000358
-0.000238
-0.000119
-0.000118
-0.000357
-0.000357
-0.000238
-0.000357
-0.000238
-0.000238
-0.000477
-0.000238
-0.000238
-0.000238
-0.000119
0.000001
-0.000119
-0.000119
-0.000119
-0.000238
-0.000238
-0.000358
-0.000358
-0.000238
-0.000358
0.000001
-0.000238
-0.000238
0.000001
0.000001
-0.000119
0.000001
0.000001
-0.000119
-0.000118
0.000001
-0.000238
-0.000238
0.000001
-0.000119
-0.000119
0.000001
-0.000119
-0.000119
-0.000119
-0.000119
-0.000119
0.000001
0.000001
-0.000358
-0.000238
-0.000358
-0.000358
-0.000238
-0.000238
-0.000478
-0.000358
-0.000238
-0.000358
-0.000358
-0.000358
-0.000478
-0.000358
-0.000358
-0.000358
-0.000358
-0.000238
-0.000477
-0.000358
-0.000358
-0.000477
-0.000358
-0.000358
-0.000477
-0.000358
-0.000238
-0.000597
-0.000478
-0.000358
-0.000477
-0.000477
-0.000238
-0.000477
-0.000477
-0.000238
-0.000238
-0.000238
-0.000119
-0.000238
-0.000119
-0.000119
-0.000238
-0.000119
-0.000119
-0.000119
-0.000119
-0.000119
0.000001
-0.000118
-0.000119
-0.000118
0.000001
0.000001
-0.000238
0.000001
-0.000238
-0.000357
-0.000119
-0.000357
-0.000238
0.000001
-0.000119
-0.000477
-0.000358
-0.000119
-0.000477
-0.000358
-0.000238
-0.000477
-0.000477
-0.000358
-0.000238
-0.000238
-0.000238
-0.000118
-0.000119
-0.000119
-0.000119
0.000001
0.000001
0.000001
0.000001
0.000001
0.000120
0.000001
0.000120
0.000120
0.000120
0.000120
0.000001
0.000001
0.000001
-0.000119
-0.000119
0.000001
0.000001
-0.000119
0.000001
-0.000119
0.000121
-0.000119
0.000121
0.000240
0.000001
0.000240
0.000240
0.000121
0.000121
0.000240
0.000121
0.000001
0.000240
0.000121
0.000001
0.000121
0.000240
0.000121
0.000120
0.000001
-0.000119
0.000001
-0.000119
0.000001
0.000001
0.000121
-0.000119
0.000000
0.000120
-0.000238
-0.000119
0.000001
-0.000238
-0.000119
-0.000238
-0.000238
-0.000119
-0.000358
-0.000238
-0.000238
-0.000358
-0.000238
-0.000119
-0.000119
-0.000238
-0.000119
-0.000238
-0.000357
-0.000238
-0.000238
-0.000357
-0.000238
-0.000118
-0.000357
-0.000238
-0.000118
-0.000238
0.000001
-0.000238
-0.000238
-0.000119
-0.000119
-0.000238
-0.000238
-0.000358
0.000001
-0.000119
-0.000119
0.000001
0.000001
-0.000238
-0.000119
0.000001
-0.000238
-0.000238
-0.000119
-0.000238
-0.000238
-0.000119
-0.000238
0.000001
0.000121
-0.000119
0.000001
0.000121
0.000001
-0.000119
0.000001
0.000001
-0.000358
-0.000238
-0.000238
-0.000358
-0.000238
-0.000119
-0.000478
-0.000358
-0.000119
-0.000478
-0.000358
-0.000358
-0.000358
-0.000358
-0.000358
-0.000478
-0.000358
-0.000358
-0.000358
-0.000238
-0.000238
-0.000477
-0.000358
-0.000358
-0.000477
-0.000358
-0.000478
-0.000597
-0.000478
-0.000358
-0.000478
-0.000358
-0.000358
-0.000478
-0.000358
-0.000358
-0.000477
-0.000358
-0.000358
-0.000477
-0.000358
-0.000358
-0.000238
-0.000119
-0.000238
-0.000238
-0.000238
-0.000238
-0.000357
-0.000238
-0.000119
-0.000238
-0.000238
0.000001
-0.000119
-0.000119
0.000001
-0.000238
-0.000238
0.000121
-0.000238
-0.000118
0.000121
-0.000477
-0.000357
-0.000238
-0.000358
-0.000238
-0.000119
-0.000357
-0.000119
-0.000119
-0.000238
-0.000357
-0.000357
-0.000357
-0.000357
-0.000357
-0.000118
-0.000238
-0.000238
-0.000119
-0.000119
-0.000119
-0.000119
-0.000119
0.000001
0.000001
0.000001
0.000120
0.000120
0.000001
0.000120
0.000120
-0.000119
0.000001
-0.000119
-0.000119
-0.000119
0.000001
-0.000119
0.000120
0.000001
0.000121
-0.000119
0.000121
0.000240
0.000002
0.000121
0.000240
0.000121
0.000240
0.000240
0.000240
0.000121
0.000121
0.000121
0.000121
0.000121
0.000240
-0.000119
-0.000119
0.000121
-0.000119
-0.000119
-0.000118
0.000001
-0.000119
-0.000118
-0.000119
-0.000119
-0.000119
-0.000119
-0.000119
-0.000119
0.000000
-0.000119
-0.000119
-0.000119
0.000000
-0.000119
-0.000238
-0.000119
-0.000238
-0.000238
-0.000119
-0.000358
-0.000238
-0.000119
-0.000238
-0.000357
-0.000238
-0.000357
-0.000238
-0.000238
-0.000238
-0.000357
-0.000238
-0.000477
-0.000238
0.000001
-0.000119
-0.000238
-0.000119
-0.000119
0.000001
-0.000119
-0.000358
0.000001
0.000001
-0.000238
-0.000238
-0.000119
-0.000238
-0.000119
-0.000119
-0.000238
-0.000119
-0.000119
-0.000238
0.000001
0.000121
0.000001
0.000001
0.000121
-0.000119
0.000001
0.000001
-0.000119
-0.000358
-0.000238
-0.000238
-0.000358
-0.000238
-0.000119
-0.000238
-0.000119
-0.000119
-0.000358
-0.000238
-0.000238
-0.000358
-0.000358
-0.000358
-0.000358
-0.000358
-0.000358
-0.000478
-0.000358
-0.000358
-0.000478
-0.000358
-0.000358
-0.000478
-0.000358
-0.000358
-0.000478
-0.000478
-0.000358
-0.000358
-0.000239
-0.000239
-0.000358
-0.000239
-0.000239
-0.000358
-0.000239
-0.000239
-0.000477
-0.000358
-0.000358
-0.000358
-0.000238
-0.000358
-0.000357
-0.000357
-0.000238
-0.000238
-0.000238
-0.000118
-0.000357
-0.000118
-0.000118
-0.000238
-0.000118
-0.000118
-0.000118
-0.000118
0.000001
-0.000118
0.000002
0.000121
-0.000118
0.000002
0.000002
-0.000238
-0.000118
0.000001
-0.000238
-0.000119
-0.000119
-0.000238
-0.000238
-0.000119
-0.000238
-0.000357
-0.000357
-0.000477
-0.000357
-0.000357
0.000001
-0.000119
-0.000119
-0.000238
-0.000238
-0.000119
0.000001
-0.000119
0.000001
0.000120
0.000120
0.000120
0.000001
0.000120
0.000120
0.000120
0.000001
-0.000119
-0.000238
-0.000238
-0.000119
0.000001
-0.000119
0.000240
0.000001
0.000121
-0.000119
0.000121
0.000240
0.000121
0.000121
0.000240
0.000240
0.000121
0.000240
0.000240
0.000001
0.000121
0.000121
0.000240
0.000001
0.000001
-0.000119
0.000001
0.000121
0.000001
0.000120
0.000121
-0.000119
0.000001
0.000001
-0.000119
-0.000119
-0.000119
-0.000238
-0.000119
-0.000119
-0.000119
-0.000119
0.000000
0.000000
0.000000
-0.000119
0.000000
0.000000
-0.000119
-0.000238
-0.000119
-0.000238
-0.000358
-0.000238
-0.000358
-0.000358
-0.000238
-0.000477
-0.000477
-0.000358
-0.000597
-0.000477
-0.000358
-0.000477
-0.000238
0.000001
-0.000238
-0.000358
-0.000119
-0.000358
-0.000238
-0.000239
-0.000358
-0.000119
-0.000239
-0.000239
-0.000238
-0.000119
-0.000358
-0.000238
-0.000119
-0.000238
0.000001
0.000121
-0.000119
0.000001
0.000001
-0.000119
-0.000119
0.000001
-0.000119
-0.000119
0.000001
0.000001
-0.000358
-0.000238
-0.000119
-0.000358
-0.000238
-0.000119
-0.000238
-0.000119
-0.000119
-0.000358
-0.000238
-0.000238
-0.000358
-0.000358
-0.000358
-0.000358
-0.000358
-0.000358
-0.000478
-0.000358
-0.000358
-0.000478
-0.000358
-0.000358
-0.000478
-0.000358
-0.000358
-0.000478
-0.000358
-0.000358
-0.000358
-0.000239
-0.000239
-0.000238
-0.000119
-0.000119
-0.000238
-0.000238
-0.000238
-0.000358
-0.000238
-0.000238
-0.000238
-0.000238
-0.000358
-0.000477
-0.000238
-0.000119
-0.000357
-0.000238
-0.000238
-0.000118
-0.000118
-0.000118
-0.000238
0.000002
-0.000118
-0.000118
0.000002
-0.000118
-0.000118
-0.000118
0.000002
-0.000118
0.000002
0.000121
-0.000118
-0.000118
0.000001
-0.000238
-0.000119
-0.000119
-0.000238
-0.000238
-0.000119
-0.000118
-0.000357
-0.000238
-0.000238
-0.000357
-0.000238
0.000001
-0.000119
-0.000119
-0.000238
-0.000119
-0.000119
-0.000119
-0.000119
0.000001
0.000120
0.000120
0.000120
0.000120
0.000120
0.000120
0.000120
0.000001
0.000001
-0.000119
-0.000238
-0.000119
0.000001
-0.000119
-0.000119
0.000240
0.000240
0.000121
0.000121
0.000240
0.000240
0.000121
0.000240
0.000121
0.000121
0.000240
0.000240
0.000121
0.000240
0.000121
0.000001
0.000001
-0.000119
0.000001
0.000121
-0.000119
0.000121
0.000120
0.000121
-0.000119
0.000001
0.000001
-0.000238
-0.000119
-0.000238
-0.000238
-0.000119
-0.000238
-0.000119
0.000000
-0.000119
0.000001
0.000000
-0.000119
-0.000119
0.000000
-0.000119
-0.000238
-0.000119
-0.000238
-0.000238
-0.000238
-0.000238
-0.000358
-0.000238
-0.000477
-0.000238
-0.000238
-0.000477
-0.000119
-0.000119
0.000001
0.000000
0.000000
-0.000119
-0.000238
-0.000119
-0.000358
-0.000238
-0.000119
-0.000358
-0.000119
-0.000119
-0.000119
-0.000238
-0.000119
-0.000358
-0.000238
-0.000239
-0.000238
-0.000238
-0.000119
-0.000238
-0.000238
-0.000119
-0.000238
-0.000238
-0.000119
-0.000238
0.000001
0.000120
0.000000
-0.000478
-0.000239
-0.000119
-0.000478
-0.000358
-0.000238
-0.000478
-0.000358
-0.000358
-0.000478
-0.000358
-0.000358
-0.000358
-0.000358
-0.000358
-0.000478
-0.000358
-0.000358
-0.000478
-0.000238
-0.000358
-0.000478
-0.000358
-0.000358
-0.000358
-0.000239
-0.000239
-0.000358
-0.000239
-0.000239
-0.000238
-0.000119
-0.000119
-0.000119
-0.000119
-0.000119
-0.000358
-0.000238
-0.000238
-0.000238
-0.000238
-0.000119
-0.000119
-0.000119
-0.000119
-0.000119
-0.000119
-0.000119
-0.000119
-0.000119
-0.000119
-0.000238
-0.000238
-0.000119
-0.000118
0.000002
-0.000118
-0.000238
-0.000118
-0.000118
-0.000118
0.000002
0.000002
-0.000118
-0.000118
0.000002
-0.000238
-0.000118
0.000001
-0.000119
0.000001
-0.000119
-0.000238
-0.000119
-0.000119
-0.000238
-0.000238
-0.000238
-0.000118
-0.000238
-0.000238
0.000001
-0.000119
-0.000238
-0.000238
-0.000119
-0.000119
-0.000238
-0.000119
-0.000119
-0.000119
0.000001
0.000001
0.000001
0.000120
0.000120
-0.000119
-0.000119
-0.000119
-0.000238
-0.000119
-0.000119
-0.000119
-0.000119
-0.000119
0.000240
0.000240
0.000240
0.000121
0.000240
0.000240
0.000121
0.000240
0.000121
0.000001
0.000121
0.000121
0.000121
0.000121
0.000001
-0.000238
-0.000119
-0.000238
-0.000238
-0.000119
-0.000119
0.000001
0.000120
0.000001
-0.000119
-0.000119
-0.000119
-0.000238
-0.000119
-0.000119
-0.000238
-0.000119
-0.000238
-0.000238
-0.000119
-0.000119
-0.000119
0.000000
0.000000
-0.000119
0.000000
0.000000
-0.000238
-0.000119
0.000001
-0.000358
-0.000238
-0.000238
-0.000238
-0.000119
-0.000238
-0.000238
-0.000119
-0.000358
-0.000119
0.000120
0.000001
-0.000119
0.000120
0.000121
-0.000119
0.000121
-0.000118
-0.000238
0.000240
0.000001
-0.000238
0.000001
-0.000119
-0.000238
-0.000119
-0.000238
-0.000238
0.000001
-0.000119
-0.000238
0.000001
-0.000238
-0.000358
-0.000119
-0.000358
-0.000238
-0.000119
-0.000238
-0.000119
-0.000119
0.000000
-0.000358
-0.000239
-0.000119
-0.000478
-0.000358
-0.000238
-0.000478
-0.000358
-0.000238
-0.000478
-0.000358
-0.000238
-0.000358
-0.000358
-0.000358
-0.000478
-0.000358
-0.000358
-0.000478
-0.000358
-0.000238
-0.000478
-0.000358
-0.000358
-0.000358
-0.000239
-0.000239
-0.000358
-0.000239
-0.000239
-0.000119
-0.000119
-0.000239
-0.000119
-0.000238
-0.000238
-0.000358
-0.000238
-0.000238
-0.000238
-0.000238
-0.000119
-0.000238
-0.000119
-0.000119
-0.000238
-0.000119
-0.000119
-0.000119
0.000001
0.000001
-0.000238
0.000001
0.000001
-0.000118
0.000001
-0.000119
-0.000357
-0.000118
-0.000238
-0.000238
-0.000118
-0.000118
-0.000357
-0.000118
-0.000238
-0.000357
-0.000238
-0.000238
-0.000119
-0.000119
-0.000119
-0.000119
-0.000119
-0.000119
-0.000118
-0.000119
-0.000119
-0.000118
-0.000238
-0.000238
-0.000238
-0.000357
-0.000357
-0.000238
-0.000119
-0.000119
-0.000119
-0.000119
-0.000119
-0.000119
-0.000119
-0.000119
0.000001
0.000120
0.000001
0.000001
-0.000119
-0.000119
0.000001
0.000001
0.000001
0.000001
0.000001
0.000001
0.000121
0.000240
0.000121
0.000240
0.000240
0.000240
0.000121
0.000240
0.000121
0.000001
0.000121
0.000001
0.000001
-0.000119
-0.000119
-0.000118
-0.000119
-0.000238
-0.000118
0.000001
-0.000238
0.000001
0.000120
0.000001
-0.000119
-0.000119
-0.000238
-0.000238
-0.000119
-0.000238
-0.000238
-0.000119
-0.000238
-0.000238
-0.000119
-0.000238
-0.000238
-0.000119
-0.000119
-0.000238
-0.000119
-0.000119
0.000121
0.000121
-0.000119
-0.000119
0.000001
-0.000119
-0.000119
0.000001
-0.000119
-0.000119
0.000001
-0.000119
0.000001
0.000120
0.000121
0.000121
0.000360
0.000241
-0.000119
0.000121
0.000121
-0.000238
0.000001
0.000001
-0.000119
0.000001
-0.000119
-0.000119
-0.000119
-0.000238
-0.000119
0.000001
-0.000119
-0.000238
-0.000119
-0.000238
-0.000238
-0.000119
-0.000238
-0.000238
-0.000119
-0.000119
-0.000119
0.000000
0.000000
-0.000238
-0.000119
-0.000119
-0.000358
-0.000238
-0.000119
-0.000238
-0.000119
-0.000238
-0.000478
-0.000358
-0.000358
-0.000478
-0.000358
-0.000358
-0.000478
-0.000358
-0.000358
-0.000478
-0.000358
-0.000358
-0.000478
-0.000358
-0.000358
-0.000358
-0.000239
-0.000239
-0.000239
-0.000239
-0.000239
-0.000119
-0.000119
-0.000239
-0.000238
-0.000119
-0.000119
-0.000238
-0.000119
-0.000119
-0.000238
-0.000119
-0.000119
-0.000238
-0.000119
-0.000119
-0.000358
-0.000238
-0.000238
-0.000238
-0.000119
-0.000119
-0.000238
-0.000119
-0.000119
-0.000118
0.000001
-0.000119
0.000002
-0.000118
-0.000238
-0.000118
-0.000118
-0.000118
-0.000238
-0.000238
-0.000238
-0.000238
-0.000119
-0.000119
-0.000119
0.000001
0.000001
-0.000238
-0.000119
-0.000119
-0.000238
-0.000119
-0.000119
-0.000238
-0.000238
-0.000238
-0.000119
-0.000357
-0.000357
-0.000238
-0.000357
-0.000238
-0.000238
-0.000119
-0.000119
-0.000238
-0.000119
-0.000119
0.000001
-0.000119
0.000001
0.000120
0.000120
0.000120
0.000120
0.000001
0.000001
0.000001
-0.000238
-0.000119
0.000121
0.000240
0.000121
0.000240
0.000240
0.000240
0.000240
0.000240
0.000240
0.000001
0.000121
0.000001
-0.000238
-0.000119
-0.000238
-0.000119
-0.000119
-0.000357
-0.000238
-0.000119
-0.000119
-0.000119
-0.000119
-0.000119
-0.000238
-0.000119
-0.000238
-0.000119
-0.000119
-0.000238
-0.000119
0.000001
-0.000119
-0.000238
-0.000119
0.000000
-0.000238
-0.000119
-0.000238
-0.000238
-0.000119
-0.000119
-0.000238
0.000001
-0.000238
-0.000119
0.000001
0.000001
0.000001
0.000121
-0.000119
0.000121
0.000240
0.000001
0.000001
0.000120
0.000001
0.000001
0.000120
0.000121
-0.000119
0.000121
0.000002
-0.000119
0.000121
-0.000358
-0.000119
-0.000238
-0.000358
-0.000119
-0.000119
-0.000238
0.000001
0.000001
-0.000119
-0.000238
-0.000119
-0.000238
-0.000238
-0.000238
-0.000238
-0.000238
-0.000119
-0.000119
-0.000238
-0.000119
-0.000119
-0.000238
0.000000
0.000000
-0.000238
-0.000119
-0.000119
-0.000119
-0.000119
-0.000119
-0.000478
-0.000478
-0.000478
-0.000478
-0.000358
-0.000358
-0.000478
-0.000478
-0.000478
-0.000477
-0.000478
-0.000478
-0.000238
-0.000358
-0.000358
-0.000358
-0.000478
-0.000478
-0.000358
-0.000239
-0.000239
-0.000238
-0.000119
-0.000119
-0.000238
-0.000119
-0.000119
-0.000238
-0.000119
-0.000119
-0.000238
-0.000119
-0.000119
-0.000358
-0.000238
-0.000238
-0.000358
-0.000238
-0.000238
-0.000238
-0.000119
-0.000119
-0.000238
-0.000119
-0.000119
-0.000238
0.000001
-0.000119
-0.000118
-0.000118
-0.000238
-0.000357
-0.000238
-0.000238
-0.000238
-0.000238
-0.000238
-0.000119
0.000001
0.000001
-0.000119
0.000001
0.000001
-0.000119
-0.000119
0.000001
-0.000238
-0.000119
-0.000119
-0.000357
-0.000238
-0.000238
-0.000357
-0.000238
-0.000238
-0.000238
-0.000238
-0.000238
-0.000238
-0.000238
-0.000119
-0.000238
-0.000119
-0.000119
0.000001
0.000001
0.000001
0.000240
0.000120
0.000120
0.000120
0.000120
0.000001
0.000120
0.000001
-0.000119
0.000240
0.000240
0.000360
0.000360
0.000240
0.000240
0.000240
0.000240
0.000240
0.000001
0.000001
0.000001
0.000001
-0.000119
-0.000119
-0.000119
0.000001
-0.000119
-0.000119
0.000001
-0.000119
-0.000238
0.000001
-0.000238
-0.000119
0.000120
0.000001
-0.000238
0.000001
-0.000119
-0.000119
0.000001
-0.000238
-0.000358
-0.000119
-0.000119
-0.000119
-0.000119
-0.000238
-0.000238
-0.000119
-0.000119
-0.000119
-0.000119
-0.000238
0.000001
0.000121
-0.000119
0.000001
0.000120
0.000001
0.000120
0.000120
0.000001
0.000001
0.000120
0.000001
0.000001
0.000120
0.000240
0.000001
0.000120
0.000121
0.000001
0.000120
0.000001
-0.000238
-0.000238
-0.000238
-0.000119
-0.000119
-0.000238
-0.000119
-0.000119
-0.000238
-0.000358
-0.000238
-0.000238
-0.000358
-0.000119
-0.000238
-0.000238
-0.000119
-0.000119
0.000000
0.000000
0.000000
-0.000238
-0.000119
-0.000119
-0.000238
-0.000119
-0.000119
-0.000358
-0.000239
-0.000239
-0.000597
-0.000478
-0.000478
-0.000358
-0.000358
-0.000478
-0.000597
-0.000597
-0.000597
-0.000597
-0.000478
-0.000478
-0.000597
-0.000478
-0.000478
-0.000478
-0.000478
-0.000358
-0.000358
-0.000239
-0.000239
-0.000119
-0.000119
-0.000238
-0.000238
-0.000119
-0.000119
-0.000238
-0.000119
-0.000119
-0.000238
-0.000119
-0.000119
-0.000358
-0.000238
-0.000238
-0.000358
-0.000238
-0.000238
-0.000238
-0.000119
-0.000119
-0.000238
-0.000119
-0.000119
-0.000238
-0.000119
-0.000119
-0.000238
-0.000238
-0.000238
-0.000357
-0.000238
-0.000238
-0.000118
-0.000119
-0.000119
-0.000119
0.000121
0.000001
-0.000238
-0.000119
-0.000119
-0.000238
-0.000238
-0.000238
-0.000238
-0.000238
-0.000238
-0.000357
-0.000358
-0.000358
-0.000119
-0.000238
-0.000238
-0.000238
-0.000119
-0.000119
-0.000238
-0.000119
-0.000119
-0.000238
-0.000119
-0.000119
-0.000119
0.000001
0.000001
-0.000238
-0.000119
-0.000119
0.000120
0.000120
0.000000
0.000120
0.000000
0.000000
0.000240
0.000360
0.000360
0.000240
0.000360
0.000360
0.000240
0.000360
0.000360
0.000120
0.000120
0.000120
0.000001
0.000120
0.000120
0.000001
0.000120
0.000001
-0.000119
0.000001
-0.000119
-0.000238
-0.000119
-0.000119
-0.000119
0.000120
0.000001
-0.000238
0.000001
-0.000119
-0.000238
-0.000119
-0.000119
-0.000358
-0.000119
-0.000238
-0.000238
-0.000119
-0.000238
-0.000238
-0.000119
-0.000238
-0.000119
0.000000
-0.000119
-0.000119
0.000120
0.000001
-0.000119
0.000120
0.000001
-0.000119
0.000000
0.000000
-0.000119
0.000000
-0.000119
0.000000
0.000240
0.000360
0.000120
0.000240
0.000240
0.000120
0.000240
0.000120
0.000000
0.000240
0.000000
-0.000119
-0.000119
-0.000238
-0.000238
0.000001
-0.000119
-0.000238
-0.000119
-0.000119
-0.000358
-0.000238
-0.000238
-0.000238
-0.000119
-0.000119
-0.000119
0.000000
0.000000
-0.000239
0.000000
0.000000
-0.000358
-0.000358
-0.000239
-0.000358
-0.000238
-0.000358
-0.000478
-0.000478
-0.000478
-0.000597
-0.000478
-0.000478
-0.000716
-0.000597
-0.000597
-0.000597
-0.000478
-0.000478
-0.000597
-0.000478
-0.000478
-0.000477
-0.000477
-0.000358
-0.000358
-0.000238
-0.000238
-0.000238
-0.000119
-0.000119
-0.000238
-0.000119
-0.000119
-0.000238
-0.000119
-0.000119
-0.000238
0.000001
-0.000119
-0.000119
-0.000119
-0.000119
-0.000238
-0.000238
-0.000238
-0.000118
0.000001
0.000001
-0.000118
0.000001
0.000001
-0.000118
-0.000119
-0.000119
-0.000238
-0.000238
-0.000238
-0.000118
-0.000119
-0.000119
-0.000238
-0.000238
-0.000238
-0.000238
0.000001
-0.000119
-0.000238
-0.000119
-0.000119
-0.000238
-0.000238
-0.000238
-0.000238
-0.000238
-0.000238
0.000001
-0.000358
-0.000358
-0.000238
-0.000238
-0.000238
-0.000119
-0.000119
-0.000119
-0.000238
-0.000119
-0.000119
-0.000238
0.000001
-0.000119
-0.000119
0.000000
0.000000
-0.000119
0.000120
0.000000
0.000000
0.000120
0.000120
0.000000
0.000001
0.000000
0.000479
0.000479
0.000479
0.000360
0.000479
0.000479
0.000360
0.000479
0.000479
0.000120
0.000359
0.000359
0.000001
0.000120
0.000120
0.000120
0.000120
0.000120
0.000000
0.000000
0.000000
0.000000
0.000000
0.000001
-0.000119
0.000120
0.000120
-0.000238
0.000001
-0.000119
-0.000238
-0.000119
0.000001
-0.000358
-0.000119
-0.000238
-0.000119
0.000000
-0.000119
0.000000
0.000000
-0.000119
0.000000
0.000000
-0.000119
0.000001
0.000120
0.000001
0.000001
0.000001
0.000001
-0.000119
0.000000
0.000000
0.000000
0.000120
0.000240
0.000000
0.000120
-0.000119
0.000000
0.000120
0.000120
0.000000
0.000120
0.000120
0.000000
0.000120
0.000000
0.000000
0.000120
0.000000
-0.000238
-0.000119
-0.000119
-0.000119
-0.000119
-0.000119
-0.000119
0.000000
0.000000
-0.000238
-0.000119
-0.000119
0.000001
0.000000
0.000000
-0.000119
-0.000119
-0.000119
-0.000358
-0.000358
-0.000358
-0.000478
-0.000358
-0.000358
-0.000597
-0.000478
-0.000478
-0.000597
-0.000478
-0.000478
-0.000597
-0.000478
-0.000478
-0.000597
-0.000478
-0.000478
-0.000597
-0.000478
-0.000478
-0.000477
-0.000477
-0.000358
-0.000358
-0.000358
-0.000358
-0.000357
-0.000357
-0.000357
-0.000357
-0.000238
-0.000357
-0.000238
-0.000119
-0.000238
-0.000238
0.000001
-0.000119
-0.000238
-0.000238
-0.000238
-0.000238
-0.000238
-0.000238
-0.000238
-0.000238
-0.000118
-0.000238
-0.000118
-0.000118
-0.000238
-0.000238
-0.000238
-0.000238
-0.000238
-0.000238
-0.000238
-0.000238
-0.000238
-0.000118
-0.000119
-0.000119
-0.000118
0.000001
-0.000119
-0.000238
-0.000119
0.000001
-0.000238
-0.000238
-0.000118
-0.000118
-0.000238
-0.000118
0.000001
-0.000119
-0.000119
-0.000118
-0.000119
-0.000119
-0.000119
-0.000238
-0.000238
-0.000358
-0.000358
-0.000238
-0.000358
-0.000238
-0.000238
0.000000
0.000000
0.000000
0.000000
-0.000119
-0.000119
0.000000
0.000120
0.000000
0.000000
0.000000
0.000000
0.000479
0.000479
0.000359
0.000479
0.000479
0.000479
0.000360
0.000479
0.000359
0.000120
0.000359
0.000359
0.000120
0.000240
0.000240
0.000120
0.000240
0.000240
-0.000119
0.000000
0.000120
-0.000119
0.000120
0.000120
0.000120
0.000120
0.000240
-0.000119
0.000001
0.000001
-0.000238
0.000001
0.000001
-0.000119
0.000120
0.000001
-0.000119
0.000120
0.000240
-0.000119
0.000000
-0.000119
-0.000119
0.000000
-0.000119
0.000120
0.000120
0.000120
-0.000119
0.000001
-0.000119
-0.000119
0.000000
0.000000
0.000000
0.000120
0.000120
0.000000
0.000120
0.000120
0.000000
0.000120
0.000120
0.000000
0.000120
0.000120
-0.000119
0.000000
0.000000
-0.000119
0.000000
0.000120
-0.000119
0.000000
0.000000
-0.000119
0.000000
0.000000
0.000120
0.000120
0.000120
-0.000238
-0.000119
-0.000119
-0.000239
0.000000
-0.000119
-0.000358
-0.000239
-0.000239
-0.000358
-0.000358
-0.000358
-0.000239
-0.000358
-0.000358
-0.000478
-0.000358
-0.000358
-0.000358
-0.000478
-0.000358
-0.000597
-0.000478
-0.000478
-0.000478
-0.000358
-0.000358
-0.000358
-0.000358
-0.000358
-0.000597
-0.000478
-0.000478
-0.000477
-0.000358
-0.000358
-0.000357
-0.000238
-0.000357
-0.000357
-0.000238
-0.000238
-0.000119
0.000001
-0.000119
-0.000119
0.000121
0.000001
-0.000357
-0.000238
-0.000238
-0.000238
-0.000119
-0.000119
-0.000238
-0.000238
-0.000119
-0.000238
-0.000238
-0.000238
-0.000118
-0.000238
-0.000238
-0.000238
-0.000238
-0.000358
-0.000238
-0.000238
-0.000238
-0.000118
-0.000119
-0.000119
0.000121
0.000121
0.000001
0.000001
0.000001
0.000001
-0.000118
-0.000238
-0.000119
0.000001
-0.000238
-0.000119
-0.000119
-0.000238
-0.000119
-0.000238
-0.000238
-0.000238
-0.000358
-0.000238
-0.000238
-0.000238
-0.000238
-0.000238
-0.000238
-0.000238
-0.000238
-0.000119
-0.000119
-0.000119
0.000000
0.000000
0.000000
-0.000119
-0.000119
-0.000119
0.000000
0.000000
0.000120
0.000359
0.000359
0.000359
0.000360
0.000479
0.000479
0.000360
0.000359
0.000359
0.000120
0.000359
0.000359
0.000120
0.000240
0.000240
0.000120
0.000240
0.000240
0.000000
0.000120
0.000120
0.000000
0.000120
0.000120
0.000000
0.000120
0.000120
0.000000
0.000120
0.000120
0.000000
0.000120
0.000120
-0.000119
0.000120
0.000000
0.000120
0.000240
0.000240
0.000000
0.000120
0.000120
-0.000119
0.000000
0.000000
-0.000119
0.000000
0.000000
-0.000238
-0.000119
-0.000119
-0.000119
0.000000
0.000000
0.000000
0.000120
0.000120
0.000000
0.000120
0.000120
0.000000
0.000120
0.000120
-0.000119
0.000120
0.000120
0.000000
0.000000
0.000000
-0.000239
0.000000
0.000000
0.000120
0.000120
0.000000
-0.000119
0.000120
0.000120
-0.000119
0.000120
0.000120
-0.000119
0.000120
0.000120
-0.000239
0.000000
0.000000
-0.000119
-0.000119
-0.000119
-0.000358
-0.000239
-0.000239
-0.000239
-0.000239
-0.000358
-0.000478
-0.000358
-0.000358
-0.000478
-0.000239
-0.000239
-0.000358
-0.000239
-0.000239
-0.000358
-0.000239
-0.000239
-0.000358
-0.000239
-0.000239
-0.000478
-0.000358
-0.000358
-0.000358
-0.000238
-0.000238
-0.000238
-0.000119
-0.000119
-0.000119
0.000001
0.000001
0.000001
0.000001
0.000001
-0.000119
0.000001
0.000001
-0.000119
0.000001
0.000001
-0.000238
-0.000119
-0.000119
-0.000238
-0.000119
-0.000119
-0.000238
-0.000119
-0.000119
-0.000119
-0.000119
-0.000119
-0.000119
-0.000119
-0.000119
0.000001
0.000001
0.000001
0.000001
0.000001
0.000001
0.000001
0.000121
0.000001
-0.000119
0.000001
0.000001
-0.000118
-0.000119
-0.000119
0.000002
-0.000119
-0.000119
-0.000118
-0.000119
-0.000119
0.000001
-0.000119
-0.000119
-0.000119
-0.000119
-0.000119
-0.000238
-0.000119
-0.000119
-0.000119
-0.000238
-0.000238
0.000001
0.000001
0.000001
0.000120
0.000120
0.000120
0.000120
0.000120
0.000120
0.000120
0.000240
0.000240
0.000120
0.000359
0.000240
0.000360
0.000359
0.000359
0.000240
0.000359
0.000359
0.000240
0.000359
0.000359
0.000240
0.000240
0.000240
0.000000
0.000120
0.000120
0.000120
0.000240
0.000120
0.000001
0.000240
0.000120
-0.000119
0.000120
0.000120
0.000000
0.000001
0.000120
-0.000119
0.000120
0.000000
-0.000119
0.000120
0.000120
-0.000119
0.000120
0.000000
0.000000
0.000120
0.000120
-0.000119
0.000000
0.000000
0.000000
0.000000
0.000000
0.000000
0.000000
0.000000
0.000000
0.000000
0.000120
0.000000
0.000120
0.000120
0.000000
0.000120
0.000120
0.000000
0.000120
0.000120
-0.000119
0.000120
0.000120
-0.000119
0.000000
0.000000
-0.000239
0.000000
0.000000
-0.000119
0.000000
0.000000
-0.000239
0.000000
0.000000
-0.000119
0.000120
0.000120
-0.000119
0.000120
0.000120
-0.000358
-0.000119
-0.000119
-0.000358
-0.000119
-0.000119
-0.000478
-0.000239
-0.000239
-0.000239
-0.000239
-0.000239
-0.000239
-0.000239
-0.000239
-0.000478
-0.000239
-0.000239
-0.000358
-0.000239
-0.000239
-0.000358
-0.000239
-0.000239
-0.000358
-0.000358
-0.000239
-0.000478
-0.000358
-0.000358
-0.000478
-0.000358
-0.000358
-0.000119
0.000001
0.000001
-0.000119
0.000001
0.000120
-0.000119
0.000001
0.000001
-0.000119
0.000001
0.000001
-0.000119
0.000001
0.000001
-0.000119
-0.000119
-0.000119
-0.000238
-0.000119
-0.000119
-0.000238
-0.000119
-0.000119
-0.000119
-0.000119
-0.000119
-0.000238
-0.000119
-0.000119
-0.000119
0.000001
0.000001
0.000001
0.000001
0.000001
0.000001
0.000121
0.000001
-0.000118
-0.000119
-0.000119
-0.000118
-0.000119
-0.000119
-0.000118
-0.000119
-0.000119
0.000001
-0.000119
-0.000119
0.000001
-0.000238
-0.000119
-0.000119
-0.000119
-0.000119
-0.000238
-0.000238
-0.000238
-0.000119
-0.000238
-0.000238
0.000120
0.000001
-0.000119
0.000240
0.000120
0.000120
0.000240
0.000240
0.000240
0.000240
0.000240
0.000240
0.000240
0.000240
0.000240
0.000120
0.000240
0.000240
0.000240
0.000359
0.000359
0.000240
0.000359
0.000240
0.000120
0.000240
0.000240
0.000000
0.000120
0.000120
-0.000119
0.000000
0.000120
-0.000119
0.000000
0.000000
-0.000119
0.000120
0.000120
0.000000
0.000120
0.000120
-0.000119
0.000120
0.000000
-0.000119
0.000120
0.000120
0.000000
0.000240
0.000120
0.000000
0.000240
0.000240
0.000000
0.000120
0.000120
0.000000
0.000120
0.000120
-0.000119
0.000000
0.000000
0.000000
0.000120
0.000120
0.000000
0.000120
0.000120
0.000000
0.000120
0.000120
-0.000119
0.000120
0.000120
-0.000119
0.000120
0.000120
-0.000239
0.000000
0.000000
-0.000239
0.000000
0.000000
-0.000119
0.000000
0.000000
-0.000119
0.000000
0.000000
-0.000239
0.000000
0.000000
-0.000239
0.000000
0.000000
-0.000358
-0.000119
-0.000119
-0.000239
-0.000119
-0.000119
-0.000358
-0.000239
-0.000239
-0.000478
-0.000239
-0.000239
-0.000239
-0.000239
-0.000239
-0.000478
-0.000239
-0.000239
-0.000358
-0.000239
-0.000239
-0.000358
-0.000239
-0.000119
-0.000478
-0.000239
-0.000239
-0.000478
-0.000358
-0.000358
-0.000358
-0.000358
-0.000239
-0.000238
-0.000119
-0.000119
0.000001
0.000120
0.000120
-0.000119
0.000001
0.000120
-0.000119
0.000001
0.000001
-0.000119
0.000001
0.000001
-0.000119
-0.000119
-0.000119
-0.000238
-0.000119
-0.000119
-0.000238
-0.000119
-0.000119
-0.000238
-0.000119
-0.000119
-0.000119
0.000001
0.000001
0.000001
0.000001
0.000001
-0.000119
0.000001
0.000001
0.000001
0.000121
0.000001
0.000001
-0.000119
-0.000119
-0.000118
-0.000238
-0.000119
-0.000118
-0.000238
-0.000238
-0.000238
-0.000357
-0.000357
-0.000238
-0.000238
-0.000238
-0.000357
-0.000238
-0.000238
0.000001
0.000001
0.000001
0.000120
0.000001
0.000001
0.000000
-0.000119
-0.000119
0.000120
0.000120
0.000000
0.000000
0.000000
0.000000
0.000120
0.000120
0.000000
0.000120
0.000240
0.000240
0.000120
0.000240
0.000240
0.000240
0.000359
0.000240
0.000120
0.000120
0.000120
0.000120
0.000120
0.000120
0.000000
0.000120
0.000120
-0.000119
0.000000
0.000120
0.000000
0.000000
0.000120
-0.000119
0.000000
0.000000
0.000000
0.000120
0.000120
-0.000119
0.000120
0.000120
0.000000
0.000120
0.000120
0.000000
0.000120
0.000120
0.000000
0.000120
0.000120
0.000000
0.000120
0.000120
0.000000
0.000120
0.000120
0.000000
0.000120
0.000120
0.000000
0.000120
0.000120
-0.000119
0.000120
0.000120
-0.000119
0.000120
0.000120
0.000000
0.000120
0.000120
0.000000
0.000120
0.000120
-0.000119
0.000000
0.000000
-0.000119
0.000000
0.000000
-0.000239
0.000000
0.000000
0.000000
0.000000
0.000000
-0.000119
0.000120
0.000120
-0.000239
0.000000
0.000000
-0.000239
-0.000119
-0.000119
-0.000358
-0.000119
-0.000119
-0.000239
-0.000119
-0.000119
-0.000478
-0.000239
-0.000239
-0.000478
-0.000239
-0.000239
-0.000478
-0.000239
-0.000239
-0.000239
-0.000239
-0.000239
-0.000238
-0.000119
-0.000119
-0.000478
-0.000119
-0.000119
-0.000478
-0.000238
-0.000358
-0.000597
-0.000358
-0.000358
-0.000238
-0.000119
-0.000119
0.000000
0.000000
0.000000
0.000120
0.000120
0.000120
0.000001
0.000120
0.000120
-0.000119
0.000001
0.000001
-0.000119
0.000001
0.000001
0.000001
0.000001
0.000001
0.000001
0.000001
0.000001
-0.000238
-0.000119
-0.000119
-0.000119
0.000001
0.000001
0.000001
0.000001
0.000001
0.000001
0.000001
0.000001
0.000001
0.000121
0.000001
-0.000118
-0.000238
-0.000238
-0.000238
-0.000238
-0.000238
-0.000238
-0.000238
-0.000238
-0.000238
-0.000238
-0.000238
0.000001
-0.000119
-0.000119
-0.000238
-0.000238
-0.000238
0.000000
0.000000
-0.000119
0.000000
-0.000119
-0.000119
0.000000
0.000000
-0.000119
0.000120
0.000120
0.000120
0.000120
0.000120
0.000120
0.000120
0.000120
0.000120
0.000120
0.000240
0.000240
0.000120
0.000240
0.000240
0.000120
0.000240
0.000240
0.000120
0.000120
0.000120
0.000120
0.000120
0.000120
0.000000
0.000120
0.000120
0.000000
0.000120
0.000120
-0.000119
0.000000
0.000120
-0.000119
0.000000
0.000120
0.000000
0.000120
0.000120
0.000000
0.000000
0.000120
-0.000119
0.000120
0.000120
-0.000119
0.000120
0.000240
0.000000
0.000120
0.000120
0.000000
0.000120
0.000120
0.000000
0.000120
0.000120
0.000000
0.000120
0.000120
-0.000119
0.000120
0.000120
-0.000119
0.000120
0.000120
-0.000119
0.000120
0.000120
0.000000
0.000120
0.000120
0.000120
0.000120
0.000120
-0.000239
0.000120
0.000000
-0.000119
0.000000
0.000000
-0.000239
0.000000
0.000000
-0.000239
0.000000
0.000000
-0.000119
0.000120
0.000120
-0.000239
0.000000
0.000000
-0.000239
0.000000
0.000000
-0.000119
0.000000
0.000000
-0.000358
-0.000119
-0.000119
-0.000478
-0.000239
-0.000239
-0.000478
-0.000239
-0.000239
-0.000478
-0.000239
-0.000239
-0.000358
-0.000239
-0.000239
-0.000358
-0.000119
-0.000119
-0.000238
-0.000119
-0.000119
-0.000358
-0.000119
-0.000239
-0.000478
-0.000239
-0.000358
-0.000478
-0.000239
-0.000239
-0.000358
-0.000119
-0.000119
-0.000238
-0.000119
-0.000119
-0.000238
-0.000119
-0.000119
-0.000119
0.000001
0.000001
-0.000119
-0.000119
-0.000119
-0.000119
0.000001
0.000001
-0.000119
0.000001
0.000001
0.000001
0.000001
0.000001
0.000001
0.000001
0.000001
0.000121
0.000001
0.000001
0.000001
0.000001
0.000001
-0.000119
0.000001
0.000001
-0.000238
-0.000238
-0.000119
-0.000118
-0.000238
-0.000238
-0.000238
-0.000358
-0.000358
-0.000119
-0.000238
-0.000238
-0.000119
-0.000358
-0.000119
0.000000
0.000000
0.000000
0.000120
0.000120
0.000120
0.000120
0.000120
0.000120
0.000120
0.000120
0.000120
0.000120
0.000120
0.000120
0.000120
0.000120
0.000120
0.000120
0.000120
0.000120
0.000120
0.000240
0.000240
0.000120
0.000240
0.000120
0.000120
0.000120
0.000120
0.000120
0.000120
0.000120
0.000000
0.000120
0.000120
-0.000119
0.000000
0.000000
0.000000
0.000000
0.000000
0.000000
0.000120
0.000120
0.000000
0.000240
0.000240
0.000000
0.000120
0.000120
-0.000119
0.000000
0.000000
-0.000119
0.000000
0.000120
0.000000
0.000120
0.000120
0.000120
0.000120
0.000120
0.000120
0.000120
0.000120
0.000000
0.000120
0.000120
0.000000
0.000120
0.000120
-0.000119
0.000120
0.000120
-0.000119
0.000120
0.000120
0.000000
0.000120
0.000120
0.000120
0.000120
0.000120
-0.000358
0.000000
0.000000
-0.000358
0.000000
-0.000119
-0.000239
0.000000
0.000000
-0.000239
0.000000
0.000000
-0.000239
0.000000
0.000000
-0.000119
0.000000
0.000000
-0.000119
0.000000
0.000000
-0.000119
0.000000
0.000000
-0.000239
0.000000
0.000000
-0.000239
0.000000
0.000000
-0.000239
0.000000
0.000000
-0.000358
-0.000119
0.000000
-0.000478
-0.000239
-0.000239
-0.000358
-0.000239
-0.000239
-0.000358
-0.000239
-0.000239
-0.000358
-0.000239
-0.000239
-0.000119
-0.000119
-0.000239
-0.000358
-0.000239
-0.000239
-0.000478
-0.000239
-0.000239
-0.000358
-0.000239
-0.000358
-0.000358
-0.000119
-0.000119
-0.000238
-0.000119
-0.000119
-0.000119
0.000001
0.000001
-0.000119
0.000001
0.000001
-0.000119
0.000001
0.000001
-0.000238
-0.000119
-0.000119
-0.000119
0.000001
0.000001
0.000001
0.000001
0.000001
0.000121
0.000001
0.000001
0.000001
0.000001
0.000001
0.000001
0.000001
0.000001
-0.000238
-0.000238
-0.000238
-0.000238
-0.000358
-0.000238
-0.000357
-0.000477
-0.000477
-0.000238
-0.000477
-0.000477
-0.000119
-0.000238
-0.000238
-0.000119
-0.000119
-0.000119
0.000000
0.000000
0.000000
0.000120
0.000000
0.000000
0.000120
0.000120
0.000120
0.000120
0.000120
0.000120
0.000240
0.000240
0.000240
0.000120
0.000120
0.000000
0.000120
0.000120
0.000120
0.000120
0.000120
0.000120
0.000120
0.000120
0.000000
0.000120
0.000120
0.000000
0.000000
0.000000
-0.000119
0.000000
0.000000
-0.000119
0.000000
0.000000
-0.000119
0.000000
0.000000
0.000000
0.000120
0.000120
0.000120
0.000000
0.000120
0.000120
-0.000119
0.000000
0.000000
0.000000
0.000000
0.000000
0.000120
0.000120
0.000000
0.000120
0.000120
0.000120
0.000000
0.000120
0.000120
0.000000
0.000120
0.000120
0.000000
0.000120
0.000120
0.000000
0.000120
0.000120
0.000000
0.000120
0.000120
0.000000
0.000120
0.000120
0.000120
0.000120
0.000120
-0.000358
0.000000
-0.000119
-0.000358
0.000000
-0.000119
-0.000119
0.000000
0.000000
-0.000119
0.000000
0.000000
-0.000239
0.000000
0.000000
-0.000119
0.000000
0.000000
0.000000
0.000000
0.000000
-0.000119
0.000000
0.000000
-0.000119
0.000000
0.000000
-0.000239
0.000000
0.000000
-0.000239
0.000000
0.000000
-0.000239
0.000000
0.000000
-0.000239
0.000000
0.000000
-0.000119
0.000000
0.000000
-0.000358
-0.000239
-0.000239
-0.000358
-0.000239
-0.000239
-0.000358
-0.000239
-0.000239
-0.000358
-0.000239
-0.000239
-0.000358
-0.000239
-0.000239
-0.000358
-0.000239
-0.000239
-0.000238
-0.000119
-0.000119
-0.000119
-0.000119
-0.000119
0.000001
0.000001
-0.000119
-0.000119
0.000001
0.000001
-0.000119
0.000001
0.000001
-0.000238
-0.000119
-0.000119
-0.000238
-0.000119
-0.000119
0.000001
-0.000119
-0.000119
0.000001
-0.000119
-0.000119
0.000001
-0.000119
0.000001
-0.000119
-0.000119
-0.000119
-0.000238
-0.000238
-0.000238
0.000001
-0.000238
-0.000119
-0.000119
-0.000238
-0.000238
-0.000238
-0.000358
-0.000358
-0.000119
-0.000238
-0.000238
0.000000
-0.000119
-0.000119
0.000120
0.000120
0.000000
0.000120
0.000120
0.000120
0.000120
0.000120
0.000120
0.000120
0.000120
0.000120
0.000120
0.000120
0.000120
0.000120
0.000120
0.000120
0.000120
0.000120
0.000120
0.000120
0.000120
0.000000
0.000120
0.000120
0.000000
0.000120
0.000120
0.000000
0.000000
0.000000
-0.000119
0.000000
0.000000
-0.000119
0.000000
0.000000
0.000000
0.000000
0.000000
0.000000
0.000000
0.000000
0.000000
0.000120
0.000120
0.000000
0.000120
0.000120
0.000000
-0.000239
-0.000119
-0.000119
-0.000119
0.000000
0.000000
-0.000119
0.000000
0.000000
0.000000
0.000120
0.000120
0.000120
0.000120
0.000120
0.000120
0.000120
0.000120
0.000000
0.000120
0.000120
0.000000
0.000120
0.000120
0.000120
0.000120
0.000120
0.000000
0.000120
0.000000
-0.000239
-0.000119
-0.000119
-0.000239
-0.000119
-0.000119
-0.000239
-0.000119
-0.000119
-0.000358
-0.000119
-0.000119
-0.000119
0.000000
0.000000
-0.000239
0.000000
0.000000
0.000000
0.000000
0.000000
-0.000119
0.000000
0.000000
-0.000239
0.000000
0.000000
-0.000119
0.000000
0.000000
-0.000239
0.000000
0.000000
-0.000239
0.000000
0.000000
-0.000239
0.000000
0.000000
-0.000239
0.000000
0.000000
-0.000239
0.000000
0.000000
-0.000239
-0.000239
-0.000119
-0.000239
-0.000119
-0.000119
-0.000478
-0.000239
-0.000239
-0.000358
-0.000239
-0.000239
-0.000358
-0.000239
-0.000239
-0.000358
-0.000239
-0.000239
-0.000119
-0.000119
-0.000119
-0.000119
-0.000119
-0.000119
-0.000119
0.000001
0.000001
0.000001
0.000001
0.000001
-0.000119
-0.000119
-0.000119
0.000001
-0.000119
0.000001
0.000001
0.000001
0.000001
0.000001
0.000001
-0.000119
-0.000119
-0.000119
-0.000119
0.000001
-0.000119
-0.000119
0.000121
-0.000119
-0.000119
0.000121
-0.000119
-0.000119
0.000001
-0.000119
-0.000119
-0.000119
-0.000238
-0.000238
0.000001
-0.000119
-0.000119
0.000120
0.000000
0.000120
0.000120
0.000120
0.000120
0.000120
0.000120
0.000120
0.000120
0.000120
0.000120
0.000120
0.000120
0.000120
0.000000
0.000000
0.000000
0.000000
0.000000
0.000000
0.000120
0.000120
0.000120
0.000120
0.000120
0.000000
0.000120
0.000120
-0.000119
0.000120
0.000120
0.000120
0.000000
0.000000
0.000000
0.000000
0.000000
0.000000
0.000000
0.000000
0.000000
0.000000
0.000000
0.000000
0.000000
0.000000
0.000000
0.000000
0.000000
0.000000
0.000000
0.000000
0.000000
-0.000119
-0.000119
-0.000119
-0.000119
0.000000
0.000000
0.000000
0.000000
0.000000
0.000120
0.000120
0.000000
0.000120
0.000120
0.000000
0.000120
0.000120
0.000000
0.000000
0.000120
0.000120
0.000000
0.000120
0.000000
0.000000
0.000120
0.000000
0.000000
0.000120
0.000000
-0.000239
-0.000119
-0.000119
-0.000239
-0.000119
-0.000119
-0.000239
-0.000119
0.000000
-0.000239
-0.000119
0.000000
-0.000119
0.000000
0.000000
-0.000119
0.000000
0.000000
-0.000119
0.000000
0.000000
-0.000119
0.000000
0.000000
-0.000119
0.000000
0.000000
0.000000
0.000000
0.000000
-0.000119
0.000000
0.000000
-0.000239
0.000000
0.000000
-0.000239
0.000000
0.000000
-0.000119
0.000000
0.000000
-0.000239
0.000000
0.000000
-0.000239
0.000000
0.000000
-0.000239
0.000000
0.000000
-0.000358
-0.000239
-0.000239
-0.000358
-0.000239
-0.000239
-0.000239
-0.000239
-0.000239
-0.000358
-0.000239
-0.000239
-0.000238
-0.000119
-0.000119
-0.000119
-0.000119
-0.000119
-0.000119
-0.000119
-0.000119
0.000001
0.000001
0.000001
0.000001
0.000001
0.000001
-0.000119
-0.000119
-0.000119
-0.000119
-0.000119
-0.000119
-0.000119
-0.000119
-0.000119
0.000001
-0.000119
-0.000119
0.000001
0.000001
-0.000119
0.000240
0.000000
0.000000
0.000001
0.000001
-0.000119
0.000001
0.000001
-0.000119
0.000240
0.000000
0.000120
0.000240
0.000120
0.000120
0.000120
0.000120
0.000120
0.000120
0.000120
0.000120
0.000120
0.000120
0.000120
0.000120
0.000120
0.000120
0.000000
0.000120
0.000000
0.000000
0.000000
0.000000
0.000000
0.000000
0.000000
0.000000
0.000000
-0.000119
0.000120
0.000000
-0.000119
0.000120
0.000120
0.000000
0.000000
0.000000
0.000000
0.000000
0.000000
0.000000
0.000000
0.000000
-0.000119
0.000000
0.000000
0.000000
0.000000
0.000000
0.000000
0.000000
0.000000
0.000000
0.000000
0.000000
0.000000
0.000000
0.000000
0.000000
0.000000
0.000000
0.000000
0.000000
0.000000
0.000000
0.000000
0.000000
0.000000
0.000000
0.000000
0.000000
0.000000
0.000000
0.000000
-0.000119
0.000000
0.000000
-0.000119
0.000000
0.000000
-0.000119
0.000000
0.000000
0.000000
0.000000
0.000000
-0.000119
0.000000
0.000000
-0.000119
0.000000
0.000000
-0.000119
-0.000119
-0.000119
-0.000119
0.000000
0.000000
-0.000119
0.000000
0.000000
-0.000119
0.000000
0.000000
-0.000119
0.000000
0.000000
-0.000119
0.000000
0.000000
-0.000119
0.000000
0.000000
-0.000119
0.000000
0.000000
-0.000119
0.000000
0.000000
-0.000119
0.000000
0.000000
-0.000119
0.000000
0.000000
-0.000119
0.000000
0.000000
0.000000
0.000000
0.000000
-0.000119
0.000000
0.000000
-0.000119
0.000000
0.000000
-0.000119
0.000000
0.000000
-0.000239
-0.000119
-0.000119
-0.000358
-0.000239
-0.000239
-0.000358
-0.000239
-0.000239
-0.000239
-0.000239
-0.000239
-0.000239
-0.000119
-0.000119
-0.000238
-0.000119
-0.000119
-0.000119
-0.000119
-0.000119
-0.000119
-0.000119
-0.000119
-0.000119
-0.000119
-0.000119
-0.000119
-0.000119
-0.000119
-0.000119
-0.000119
-0.000119
0.000001
-0.000119
-0.000119
0.000001
-0.000119
-0.000119
0.000120
0.000001
-0.000119
0.000240
0.000000
0.000000
0.000120
0.000120
0.000000
0.000120
0.000120
0.000000
0.000120
0.000120
0.000000
0.000240
0.000120
0.000120
0.000120
0.000120
0.000120
0.000120
0.000120
0.000120
0.000120
0.000120
0.000120
0.000000
0.000000
0.000000
0.000000
0.000000
0.000000
0.000000
0.000000
0.000000
0.000000
0.000000
0.000000
0.000120
0.000000
-0.000119
0.000120
0.000120
0.000000
0.000120
0.000120
0.000120
0.000000
0.000000
0.000000
0.000000
0.000000
-0.000119
0.000000
0.000000
-0.000119
0.000000
0.000000
0.000000
0.000000
0.000000
0.000000
0.000000
0.000000
0.000000
0.000000
0.000000
0.000000
0.000000
0.000000
0.000000
0.000000
0.000000
0.000000
0.000000
0.000000
0.000000
0.000000
0.000000
0.000000
0.000000
0.000000
0.000000
0.000000
0.000000
0.000000
-0.000119
0.000000
0.000000
-0.000119
0.000000
0.000000
-0.000119
0.000000
0.000000
-0.000119
0.000000
0.000000
-0.000119
0.000000
0.000000
0.000000
0.000000
0.000000
0.000000
-0.000119
-0.000119
-0.000119
-0.000119
-0.000119
-0.000119
0.000000
0.000000
-0.000119
0.000000
0.000000
-0.000119
0.000000
0.000000
-0.000119
0.000000
0.000000
-0.000119
0.000000
0.000000
-0.000119
0.000000
0.000000
-0.000119
0.000000
0.000000
-0.000119
0.000000
0.000000
-0.000119
0.000000
0.000000
-0.000119
0.000000
0.000000
-0.000119
0.000000
0.000000
-0.000119
0.000000
0.000000
-0.000119
0.000000
0.000000
0.000000
0.000000
0.000000
-0.000119
0.000000
0.000000
-0.000119
0.000000
0.000000
-0.000119
0.000000
0.000000
-0.000119
-0.000119
-0.000119
-0.000239
-0.000119
-0.000119
-0.000119
0.000000
0.000000
-0.000119
-0.000119
0.000000
-0.000119
-0.000238
-0.000119
-0.000119
-0.000119
-0.000119
-0.000119
-0.000119
-0.000119
-0.000119
-0.000119
-0.000119
0.000001
-0.000119
-0.000119
0.000120
-0.000119
-0.000119
0.000001
0.000120
0.000000
0.000240
0.000000
0.000000
0.000240
0.000000
0.000000
0.000120
0.000120
0.000000
0.000120
0.000120
0.000000
0.000240
0.000120
0.000120
0.000120
0.000120
0.000120
0.000000
0.000000
0.000000
0.000000
0.000000
0.000000
0.000000
0.000000
0.000000
0.000000
0.000000
0.000000
0.000000
0.000000
0.000000
0.000000
0.000000
0.000000
0.000120
0.000000
0.000000
0.000120
0.000120
0.000120
0.000120
0.000120
0.000120
0.000000
0.000000
-0.000119
0.000000
0.000000
0.000000
0.000000
0.000000
0.000000
0.000000
0.000000
0.000000
0.000000
0.000000
0.000000
0.000000
0.000000
0.000000
0.000000
0.000000
0.000000
0.000000
0.000000
0.000000
0.000000
0.000000
0.000000
0.000000
0.000000
0.000000
0.000000
0.000000
0.000000
0.000000
0.000000
0.000000
-0.000119
0.000000
0.000000
-0.000119
0.000000
0.000000
-0.000119
0.000000
0.000000
-0.000119
0.000000
0.000000
-0.000119
0.000000
0.000000
-0.000119
0.000000
0.000000
-0.000119
0.000000
0.000000
0.000000
0.000000
0.000000
-0.000239
-0.000119
-0.000119
-0.000239
-0.000119
-0.000119
-0.000119
0.000000
0.000000
-0.000119
0.000000
0.000000
-0.000119
0.000000
0.000000
-0.000119
0.000000
0.000000
-0.000119
0.000000
0.000000
0.000000
0.000000
0.000000
-0.000239
0.000000
0.000000
-0.000119
0.000000
0.000000
-0.000119
0.000000
0.000000
-0.000119
0.000000
0.000000
-0.000119
0.000000
0.000000
-0.000119
0.000000
0.000000
-0.000119
0.000000
0.000000
-0.000119
0.000000
0.000000
-0.000119
0.000000
0.000000
-0.000119
0.000000
0.000000
-0.000119
0.000000
0.000000
-0.000239
-0.000119
-0.000119
0.000000
0.000000
0.000000
-0.000119
-0.000119
-0.000119
-0.000119
-0.000119
-0.000119
-0.000119
-0.000119
-0.000119
-0.000119
-0.000119
-0.000119
-0.000119
-0.000119
-0.000119
0.000120
-0.000119
-0.000119
0.000001
-0.000119
-0.000119
0.000240
0.000000
0.000000
0.000240
0.000000
0.000000
0.000240
0.000000
0.000000
0.000120
0.000000
0.000000
0.000120
0.000120
0.000000
0.000120
0.000000
0.000000
0.000000
0.000000
0.000000
0.000000
0.000000
0.000000
0.000000
0.000000
0.000000
0.000000
-0.000119
0.000000
0.000000
0.000000
0.000000
0.000000
0.000120
0.000000
0.000000
0.000000
0.000000
0.000240
0.000000
0.000000
0.000120
0.000120
0.000120
0.000000
0.000000
0.000000
0.000000
-0.000119
0.000000
0.000000
-0.000119
0.000120
0.000000
-0.000119
0.000000
0.000000
0.000000
0.000000
0.000000
0.000000
0.000000
0.000000
0.000000
0.000000
0.000000
0.000000
0.000000
0.000000
0.000000
0.000000
0.000000
0.000000
0.000000
0.000000
0.000000
0.000000
0.000000
0.000000
0.000000
0.000000
0.000000
0.000000
0.000000
0.000000
0.000000
-0.000119
0.000000
0.000000
-0.000119
0.000000
0.000000
-0.000119
0.000000
0.000000
-0.000119
0.000000
0.000000
-0.000119
0.000000
0.000000
-0.000119
0.000000
0.000000
-0.000119
0.000000
0.000000
-0.000119
0.000000
0.000000
0.000000
0.000000
0.000000
-0.000119
0.000000
0.000000
-0.000119
0.000000
0.000000
-0.000119
0.000000
0.000000
0.000000
0.000000
0.000000
0.000000
0.000000
0.000000
0.000000
0.000000
0.000000
-0.000119
0.000000
0.000000
-0.000119
0.000000
0.000000
-0.000119
0.000000
0.000000
0.000000
0.000000
0.000000
-0.000119
0.000000
0.000000
0.000000
0.000000
0.000000
-0.000119
0.000000
0.000000
-0.000119
0.000000
0.000000
-0.000119
0.000000
0.000000
-0.000119
0.000000
0.000000
-0.000119
0.000000
0.000000
-0.000119
0.000000
0.000000
0.000000
0.000000
0.000000
0.000000
0.000000
0.000000
0.000000
0.000000
0.000000
-0.000119
-0.000119
-0.000119
0.000120
0.000000
0.000000
0.000120
0.000120
0.000000
0.000240
0.000000
0.000120
0.000120
-0.000119
-0.000119
0.000359
0.000120
0.000120
0.000359
0.000120
0.000120
0.000359
0.000120
0.000120
0.000120
0.000000
0.000000
-0.000119
-0.000119
-0.000119
0.000001
-0.000119
-0.000119
-0.000119
-0.000119
-0.000119
-0.000119
-0.000119
-0.000119
-0.000119
-0.000119
-0.000119
-0.000119
-0.000119
-0.000119
-0.000119
-0.000119
-0.000119
-0.000119
-0.000119
-0.000119
-0.000119
-0.000119
-0.000119
0.000240
-0.000119
0.000000
0.000120
0.000000
0.000120
0.000000
-0.000119
-0.000119
0.000000
-0.000119
0.000000
0.000000
-0.000119
0.000000
0.000000
-0.000119
0.000000
0.000000
-0.000239
0.000000
0.000000
0.000000
0.000000
0.000000
0.000000
0.000000
0.000000
0.000000
0.000000
0.000000
0.000000
0.000000
0.000000
0.000000
0.000000
0.000000
0.000000
0.000000
0.000000
0.000000
0.000000
0.000000
0.000000
0.000000
0.000000
0.000000
0.000000
-0.000119
0.000000
0.000000
-0.000119
0.000000
0.000000
-0.000119
0.000000
0.000000
-0.000119
0.000000
0.000000
-0.000119
0.000000
0.000000
-0.000119
0.000000
0.000000
-0.000119
0.000000
0.000000
-0.000119
0.000000
0.000000
-0.000119
0.000000
0.000000
-0.000119
0.000000
0.000000
-0.000119
0.000000
0.000000
-0.000119
0.000000
0.000000
-0.000119
0.000000
0.000000
-0.000119
0.000000
0.000000
-0.000119
0.000000
0.000000
-0.000119
0.000000
0.000000
-0.000119
0.000000
0.000000
-0.000119
0.000000
0.000000
0.000000
0.000000
0.000000
-0.000119
0.000000
0.000000
-0.000119
0.000000
0.000000
-0.000119
0.000000
0.000000
-0.000119
0.000000
0.000000
0.000000
0.000000
0.000000
-0.000119
0.000000
0.000000
-0.000119
0.000000
0.000000
0.000000
0.000000
0.000000
0.000120
0.000120
0.000120
0.000000
0.000000
0.000000
0.000000
0.000000
0.000000
0.000000
0.000000
0.000000
0.000120
0.000120
0.000120
0.000120
0.000120
0.000120
0.000240
0.000000
0.000000
0.000240
0.000000
0.000000
0.000359
0.000120
0.000120
0.000359
0.000120
0.000120
0.000359
0.000120
0.000000
0.000120
0.000120
0.000000
0.000001
-0.000119
-0.000119
0.000001
-0.000119
-0.000119
-0.000119
-0.000119
-0.000119
-0.000119
-0.000119
-0.000119
-0.000119
-0.000119
0.000000
-0.000238
-0.000238
-0.000119
0.000000
0.000000
0.000000
0.000000
0.000120
0.000000
0.000000
0.000000
0.000000
0.000120
-0.000119
-0.000119
0.000120
-0.000119
0.000000
0.000000
-0.000119
-0.000119
0.000000
-0.000119
0.000000
-0.000119
-0.000239
0.000000
-0.000119
-0.000239
0.000000
0.000000
-0.000239
0.000000
0.000000
-0.000119
0.000000
0.000000
0.000000
0.000000
0.000000
0.000000
0.000000
0.000000
0.000000
0.000000
0.000000
0.000000
0.000000
0.000000
0.000000
0.000000
0.000000
0.000000
0.000000
0.000000
0.000000
0.000000
0.000000
0.000000
0.000000
0.000000
0.000000
0.000000
0.000000
0.000000
0.000000
-0.000119
0.000000
0.000000
-0.000119
0.000000
0.000000
-0.000119
0.000000
0.000000
-0.000119
0.000000
0.000000
-0.000119
0.000000
0.000000
-0.000119
0.000000
0.000000
-0.000119
0.000000
0.000000
-0.000119
0.000000
0.000000
-0.000119
0.000000
0.000000
-0.000119
0.000000
0.000000
-0.000119
0.000000
0.000000
-0.000119
0.000000
0.000000
-0.000119
0.000000
0.000000
0.000000
0.000000
0.000000
0.000000
0.000000
0.000000
0.000000
0.000000
0.000000
-0.000119
0.000000
0.000000
-0.000119
0.000000
0.000000
-0.000119
0.000000
0.000000
-0.000119
0.000000
0.000000
-0.000119
0.000000
0.000000
0.000000
0.000000
0.000000
0.000000
0.000000
0.000000
0.000000
0.000000
0.000000
0.000000
0.000000
0.000000
0.000000
0.000000
0.000000
0.000120
0.000120
0.000120
0.000120
0.000120
0.000120
0.000120
0.000120
0.000120
0.000120
0.000120
0.000120
0.000120
0.000120
0.000120
0.000240
0.000120
0.000120
0.000240
0.000000
0.000000
0.000240
0.000000
0.000000
0.000240
0.000000
0.000000
0.000240
0.000000
0.000000
0.000240
0.000000
0.000000
0.000240
0.000120
0.000000
0.000240
0.000000
0.000000
-0.000119
-0.000119
-0.000119
-0.000119
-0.000119
-0.000119
0.000000
0.000000
0.000000
-0.000119
-0.000119
-0.000119
0.000000
0.000000
0.000000
0.000000
0.000000
0.000000
0.000000
0.000000
0.000000
0.000120
-0.000119
-0.000119
0.000120
-0.000119
-0.000119
0.000000
-0.000119
0.000120
0.000000
-0.000119
0.000000
0.000000
-0.000119
0.000000
0.000000
-0.000119
-0.000119
0.000000
-0.000119
0.000000
0.000000
-0.000119
0.000000
0.000000
0.000000
0.000000
0.000000
0.000000
0.000000
0.000000
0.000000
0.000000
0.000000
0.000000
0.000000
-0.000119
-0.000119
-0.000119
0.000000
0.000000
0.000000
0.000000
0.000000
0.000000
0.000000
-0.000119
-0.000119
0.000000
-0.000119
-0.000119
0.000000
0.000000
0.000000
0.000000
0.000000
0.000000
-0.000119
0.000000
0.000000
0.000000
0.000000
0.000000
-0.000119
0.000000
0.000000
0.000000
0.000000
0.000000
-0.000119
0.000000
0.000000
-0.000119
0.000000
0.000000
-0.000119
0.000000
0.000000
-0.000119
0.000000
0.000000
-0.000119
0.000000
0.000000
-0.000119
0.000000
0.000000
-0.000119
0.000000
0.000000
-0.000119
0.000000
0.000000
-0.000119
0.000000
0.000000
-0.000119
0.000000
0.000000
-0.000119
0.000000
0.000000
-0.000119
0.000000
0.000000
-0.000119
0.000000
0.000000
-0.000119
0.000000
0.000000
-0.000119
0.000000
0.000000
-0.000119
0.000000
0.000000
-0.000119
0.000000
0.000000
0.000000
0.000000
0.000000
0.000000
0.000000
0.000000
0.000000
0.000000
0.000000
0.000000
0.000000
0.000000
0.000120
0.000120
0.000120
0.000120
0.000120
0.000120
0.000120
0.000120
0.000120
0.000120
0.000120
0.000120
0.000120
0.000120
0.000120
0.000120
0.000120
0.000120
0.000000
0.000000
0.000000
0.000120
0.000000
0.000000
0.000240
0.000000
0.000000
0.000120
0.000000
0.000000
0.000240
0.000000
0.000000
0.000240
0.000120
0.000000
0.000120
0.000000
0.000000
0.000000
0.000000
0.000000
0.000000
0.000000
0.000000
0.000000
0.000000
0.000000
-0.000119
-0.000119
-0.000119
0.000000
0.000000
0.000000
0.000000
0.000000
0.000000
0.000000
0.000000
0.000000
0.000120
0.000000
0.000000
0.000120
-0.000119
0.000000
0.000000
-0.000119
0.000000
0.000000
-0.000119
0.000000
0.000000
-0.000119
0.000000
0.000000
-0.000119
0.000000
0.000000
-0.000119
0.000000
-0.000119
-0.000119
0.000000
0.000000
-0.000119
0.000000
0.000000
0.000000
0.000000
0.000000
0.000000
0.000000
0.000000
0.000000
0.000000
0.000000
0.000000
0.000000
-0.000119
-0.000119
-0.000119
0.000000
-0.000119
-0.000119
0.000000
-0.000119
-0.000119
0.000000
-0.000119
-0.000119
0.000000
0.000000
0.000000
0.000000
0.000000
0.000000
0.000000
0.000000
0.000000
0.000000
0.000000
0.000000
-0.000119
0.000000
0.000000
0.000000
0.000000
0.000000
0.000000
0.000000
0.000000
-0.000119
0.000000
0.000000
-0.000119
0.000000
0.000000
-0.000119
0.000000
0.000000
-0.000119
0.000000
0.000000
-0.000119
0.000000
0.000000
0.000000
0.000000
0.000000
0.000000
0.000000
0.000000
-0.000119
0.000000
0.000000
-0.000119
0.000000
0.000000
-0.000119
0.000000
0.000000
-0.000119
0.000000
0.000000
-0.000119
0.000000
0.000000
-0.000119
0.000000
0.000000
-0.000119
0.000000
0.000000
-0.000119
0.000000
0.000000
0.000000
0.000000
0.000000
0.000000
0.000000
0.000000
0.000000
0.000000
0.000000
0.000000
0.000000
0.000000
0.000000
0.000000
0.000000
0.000120
0.000120
0.000120
0.000120
0.000120
0.000120
0.000120
0.000120
0.000120
0.000120
0.000120
0.000120
0.000120
0.000120
0.000120
0.000120
0.000000
0.000000
0.000120
0.000000
0.000000
0.000120
0.000000
0.000000
0.000120
0.000000
0.000000
0.000120
0.000000
0.000000
0.000000
0.000000
0.000000
0.000240
0.000000
0.000000
0.000240
0.000000
0.000000
0.000120
0.000000
0.000000
0.000000
0.000000
0.000000
0.000000
0.000000
0.000000
0.000000
0.000000
0.000120
0.000000
-0.000119
0.000000
-0.000119
-0.000119
-0.000119
-0.000119
-0.000119
-0.000119
0.000120
0.000000
0.000120
0.000000
-0.000119
0.000000
0.000000
0.000120
0.000000
0.000000
0.000120
0.000120
0.000000
0.000000
0.000000
0.000000
0.000000
0.000000
0.000000
-0.000119
0.000000
0.000000
0.000000
0.000000
0.000000
0.000000
0.000000
0.000000
0.000000
0.000000
0.000000
0.000000
0.000000
0.000120
0.000120
0.000000
0.000000
0.000000
0.000000
-0.000119
-0.000119
0.000000
0.000000
0.000000
0.000000
0.000000
0.000000
0.000000
0.000000
0.000000
0.000000
0.000000
0.000000
0.000000
0.000000
0.000000
0.000000
0.000000
0.000000
0.000000
0.000000
0.000000
0.000000
-0.000119
0.000000
0.000000
0.000000
0.000000
0.000000
0.000000
0.000000
0.000000
-0.000119
0.000000
0.000000
-0.000119
0.000000
0.000000
-0.000119
0.000000
0.000000
0.000000
0.000000
0.000000
0.000000
0.000000
0.000000
0.000000
0.000000
0.000000
0.000000
0.000000
0.000000
0.000000
0.000000
0.000000
-0.000119
0.000000
0.000000
-0.000119
0.000000
0.000000
-0.000119
0.000000
0.000000
-0.000119
0.000000
0.000000
-0.000119
0.000000
0.000000
-0.000119
0.000000
0.000000
0.000000
0.000000
0.000000
0.000000
0.000000
0.000000
0.000000
0.000000
0.000000
0.000000
0.000000
0.000000
0.000000
0.000000
0.000000
0.000000
0.000000
0.000000
0.000120
0.000120
0.000120
0.000120
0.000120
0.000120
0.000120
0.000120
0.000120
0.000120
0.000120
0.000120
0.000000
0.000000
0.000000
0.000120
0.000000
0.000000
0.000120
0.000000
0.000000
0.000120
0.000000
0.000000
0.000120
0.000000
0.000000
0.000120
0.000000
0.000000
0.000120
0.000000
0.000000
0.000001
-0.000119
-0.000119
0.000121
-0.000119
-0.000119
0.000120
0.000000
0.000000
0.000000
0.000000
0.000000
0.000000
0.000000
0.000000
0.000000
0.000000
0.000000
0.000000
-0.000119
0.000000
0.000000
-0.000119
-0.000119
0.000000
-0.000119
-0.000119
0.000000
0.000000
0.000120
-0.000119
-0.000119
0.000000
0.000000
0.000120
0.000120
0.000000
0.000000
0.000120
0.000000
0.000000
0.000000
0.000000
0.000000
0.000000
0.000000
0.000000
0.000000
0.000000
0.000000
0.000000
0.000000
0.000000
0.000000
0.000000
0.000000
0.000000
0.000000
0.000000
0.000000
0.000000
0.000000
0.000000
0.000000
0.000000
0.000000
0.000000
0.000000
0.000000
0.000000
0.000000
0.000000
0.000000
0.000000
0.000000
0.000000
0.000000
0.000000
0.000000
0.000000
0.000000
0.000000
0.000000
0.000000
0.000000
0.000000
0.000000
0.000000
0.000000
0.000000
0.000000
0.000000
0.000000
0.000000
-0.000119
0.000000
0.000000
0.000000
0.000000
0.000000
0.000000
0.000000
-0.000119
0.000000
0.000000
-0.000119
0.000000
0.000000
0.000000
-0.000119
0.000000
0.000000
0.000000
0.000000
0.000000
0.000000
0.000000
0.000000
0.000000
0.000000
0.000000
0.000000
0.000000
0.000000
0.000000
0.000000
0.000000
0.000000
0.000000
0.000000
0.000000
0.000000
0.000000
0.000000
0.000000
0.000000
0.000000
0.000000
-0.000119
0.000000
0.000000
0.000000
0.000000
0.000000
0.000000
0.000000
0.000000
0.000000
0.000000
0.000000
0.000000
0.000000
0.000000
0.000000
0.000000
0.000000
0.000000
0.000000
0.000000
0.000120
0.000120
0.000120
0.000120
0.000120
0.000120
0.000120
0.000120
0.000120
0.000120
0.000120
0.000120
0.000120
0.000120
0.000120
0.000120
0.000000
0.000000
0.000120
0.000000
0.000000
0.000120
0.000000
0.000000
0.000120
0.000000
0.000000
0.000120
0.000000
0.000000
0.000120
0.000000
0.000000
0.000240
0.000120
0.000000
0.000240
0.000120
0.000120
0.000240
0.000120
0.000000
0.000120
0.000000
0.000000
0.000000
0.000000
0.000000
0.000000
0.000000
0.000000
0.000000
-0.000119
-0.000119
0.000000
-0.000119
-0.000119
0.000000
-0.000119
-0.000119
0.000000
0.000000
0.000120
-0.000119
-0.000119
0.000000
0.000000
0.000120
0.000120
0.000000
0.000000
0.000000
0.000000
0.000000
0.000000
0.000000
0.000000
0.000000
0.000000
0.000000
0.000000
0.000000
0.000000
0.000000
0.000000
0.000000
0.000000
0.000000
0.000000
0.000000
0.000000
0.000000
0.000000
0.000000
0.000000
0.000000
0.000000
0.000000
0.000000
0.000000
0.000000
0.000000
0.000000
0.000000
0.000000
0.000000
0.000000
0.000000
0.000000
0.000000
0.000000
0.000000
0.000000
0.000000
0.000000
0.000000
0.000000
0.000000
0.000000
0.000000
0.000000
0.000000
0.000000
0.000000
0.000000
0.000000
0.000000
0.000000
0.000000
0.000000
0.000000
0.000000
0.000000
0.000000
0.000000
0.000000
0.000000
0.000000
0.000000
0.000000
0.000000
0.000000
0.000000
0.000000
0.000000
0.000000
0.000000
0.000000
0.000000
0.000000
0.000000
0.000000
0.000000
0.000000
0.000000
0.000000
0.000000
0.000000
0.000000
0.000000
0.000000
0.000000
0.000000
0.000000
0.000000
0.000000
0.000000
0.000000
0.000000
0.000000
0.000000
0.000000
0.000000
0.000000
0.000000
0.000000
0.000000
0.000000
0.000000
0.000000
0.000000
0.000000
0.000000
0.000000
0.000000
0.000000
0.000000
0.000000
0.000000
0.000120
0.000120
0.000120
0.000120
0.000120
0.000120
0.000000
0.000120
0.000000
0.000000
0.000000
0.000000
0.000000
0.000000
0.000000
0.000000
0.000000
0.000000
0.000000
-0.000119
-0.000119
0.000000
-0.000119
-0.000119
0.000120
0.000000
0.000000
0.000120
0.000000
0.000000
0.000120
0.000000
0.000000
0.000120
0.000000
0.000000
0.000120
0.000000
0.000000
0.000120
0.000000
0.000000
0.000000
0.000000
0.000000
0.000120
0.000120
0.000120
0.000120
0.000120
0.000120
0.000001
0.000001
0.000001
0.000001
0.000001
0.000001
0.000000
-0.000119
-0.000119
0.000000
-0.000119
-0.000119
-0.000119
-0.000119
0.000000
-0.000119
-0.000119
0.000000
0.000000
0.000120
0.000000
0.000000
0.000000
0.000000
0.000000
0.000000
0.000000
0.000000
0.000000
0.000000
0.000000
0.000000
0.000000
0.000000
0.000000
0.000000
0.000000
0.000000
0.000000
0.000000
0.000000
0.000000
0.000000
0.000000
0.000000
0.000000
0.000000
0.000000
0.000000
0.000000
0.000000
0.000000
0.000000
0.000000
0.000000
0.000000
0.000000
0.000000
0.000000
0.000000
0.000000
0.000000
0.000000
0.000000
0.000000
0.000000
0.000000
0.000000
0.000000
0.000000
0.000000
0.000000
0.000000
0.000000
0.000000
0.000000
0.000000
0.000000
0.000000
0.000000
0.000000
0.000000
0.000000
0.000000
0.000000
0.000000
0.000000
0.000000
0.000000
0.000000
0.000000
0.000000
0.000000
0.000000
0.000000
0.000000
0.000000
0.000000
0.000000
0.000000
0.000000
0.000000
0.000000
0.000000
0.000000
0.000000
0.000000
0.000000
0.000000
0.000000
0.000000
0.000000
0.000000
0.000000
0.000000
0.000000
0.000000
0.000000
0.000000
0.000000
0.000000
0.000000
0.000000
0.000000
0.000000
0.000000
0.000000
0.000000
0.000000
0.000000
0.000000
0.000000
0.000000
0.000000
0.000000
0.000000
0.000000
0.000000
0.000000
0.000000
0.000000
0.000000
0.000000
0.000000
0.000000
0.000000
0.000000
0.000000
0.000000
0.000000
0.000000
0.000000
0.000000
0.000000
0.000000
0.000000
0.000000
0.000000
0.000000
0.000000
0.000000
0.000000
-0.000119
-0.000119
-0.000119
-0.000119
-0.000119
0.000000
0.000120
0.000000
0.000000
0.000120
-0.000119
0.000000
0.000000
-0.000119
-0.000119
0.000000
-0.000119
-0.000119
0.000000
-0.000119
-0.000119
0.000000
0.000000
0.000000
0.000000
0.000000
0.000000
0.000000
0.000000
0.000000
0.000120
0.000001
0.000001
0.000120
0.000001
0.000001
0.000120
0.000001
0.000120
0.000120
0.000120
0.000120
-0.000119
0.000000
0.000000
-0.000119
0.000000
-0.000119
0.000000
0.000000
0.000000
0.000000
0.000000
0.000000
0.000000
0.000000
0.000000
0.000000
0.000000
0.000000
0.000000
0.000000
0.000000
0.000000
0.000000
0.000000
0.000000
0.000000
0.000000
0.000000
0.000000
0.000000
0.000000
0.000000
0.000000
0.000000
0.000000
0.000000
0.000000
0.000000
0.000000
0.000000
0.000000
0.000000
0.000000
0.000000
0.000000
0.000000
0.000000
0.000000
0.000000
0.000000
0.000000
0.000000
0.000000
0.000000
0.000000
0.000000
0.000000
0.000000
0.000000
0.000000
0.000000
0.000000
0.000000
0.000000
0.000000
0.000000
0.000000
0.000000
0.000000
0.000000
0.000000
0.000000
0.000000
0.000000
0.000000
0.000000
0.000000
0.000000
0.000000
0.000000
0.000000
0.000000
0.000000
0.000000
0.000000
0.000000
0.000000
0.000000
0.000000
0.000000
0.000000
0.000000
0.000000
0.000000
0.000000
0.000000
0.000000
0.000000
0.000000
0.000000
0.000000
0.000000
0.000000
0.000000
0.000000
0.000000
0.000000
0.000000
0.000000
0.000000
0.000000
0.000000
0.000000
0.000000
0.000000
0.000000
0.000000
0.000000
0.000000
0.000000
0.000000
0.000120
0.000120
0.000000
0.000000
0.000000
0.000000
0.000000
0.000000
0.000000
0.000000
0.000000
0.000000
0.000000
0.000000
0.000000
0.000000
0.000000
0.000000
0.000000
0.000000
0.000000
0.000000
0.000000
0.000000
0.000000
0.000000
0.000000
0.000000
0.000000
-0.000119
-0.000119
-0.000119
0.000000
0.000000
0.000000
0.000000
0.000000
0.000000
0.000120
0.000000
0.000000
0.000120
0.000000
0.000000
0.000000
-0.000119
0.000000
-0.000119
-0.000119
-0.000119
-0.000119
-0.000119
-0.000119
0.000000
-0.000119
-0.000119
0.000120
0.000000
0.000000
0.000000
0.000000
0.000000
0.000000
0.000000
0.000000
0.000000
0.000000
0.000000
0.000120
0.000120
0.000120
-0.000119
0.000000
-0.000119
-0.000119
-0.000119
-0.000119
0.000000
0.000000
0.000000
0.000000
0.000000
0.000000
0.000000
0.000000
0.000000
0.000000
0.000000
0.000000
0.000000
0.000000
0.000000
0.000000
0.000000
0.000000
0.000000
0.000000
0.000120
0.000000
0.000000
0.000000
0.000000
0.000000
0.000000
0.000000
0.000000
0.000000
0.000000
0.000000
0.000000
0.000000
0.000000
0.000000
0.000000
0.000000
0.000000
0.000000
0.000000
0.000000
0.000000
0.000000
0.000000
0.000000
0.000000
0.000000
0.000000
0.000000
0.000000
0.000000
0.000000
0.000000
0.000000
0.000000
0.000000
0.000000
0.000000
0.000000
0.000000
0.000000
0.000000
0.000000
0.000000
0.000000
0.000000
0.000000
0.000000
0.000000
0.000000
0.000000
0.000000
0.000000
0.000000
-0.000119
-0.000119
0.000000
0.000000
0.000000
0.000000
0.000000
0.000000
0.000000
0.000000
0.000000
0.000000
0.000000
0.000000
0.000000
0.000000
0.000000
0.000000
0.000000
0.000000
0.000000
0.000000
0.000000
0.000000
0.000000
0.000000
0.000000
0.000000
0.000000
0.000000
0.000000
0.000000
0.000000
0.000000
0.000000
0.000000
0.000000
0.000000
0.000000
0.000000
0.000120
0.000120
0.000000
0.000000
0.000000
0.000000
0.000000
0.000000
0.000000
0.000000
0.000000
0.000000
0.000000
0.000000
0.000000
0.000000
0.000000
0.000000
0.000000
0.000000
0.000000
0.000000
0.000000
0.000000
0.000000
0.000000
0.000000
0.000000
0.000000
0.000000
0.000000
0.000000
0.000000
0.000000
0.000000
0.000000
0.000000
0.000000
0.000000
0.000000
0.000000
0.000000
0.000000
0.000000
0.000000
0.000000
0.000000
0.000000
0.000000
0.000000
-0.000119
-0.000119
-0.000119
-0.000119
-0.000119
-0.000119
0.000000
-0.000119
-0.000119
-0.000119
-0.000119
-0.000119
0.000000
0.000000
0.000000
0.000120
0.000120
0.000120
0.000120
0.000120
0.000120
0.000120
0.000120
0.000000
0.000120
0.000120
0.000000
0.000000
0.000000
0.000000
0.000000
0.000000
0.000000
0.000000
0.000000
0.000000
0.000000
0.000000
0.000000
0.000000
0.000000
0.000000
0.000000
0.000000
0.000120
0.000120
0.000120
0.000120
0.000000
0.000000
0.000000
0.000000
0.000000
0.000000
0.000000
0.000000
0.000000
0.000000
0.000000
0.000000
0.000000
-0.000119
-0.000119
0.000000
0.000000
0.000000
0.000000
0.000000
0.000000
0.000000
0.000000
0.000000
0.000000
0.000000
0.000000
0.000000
0.000000
0.000000
0.000000
0.000000
0.000000
0.000000
0.000000
0.000000
0.000000
0.000000
0.000000
0.000000
0.000000
0.000000
0.000000
0.000000
0.000000
0.000000
0.000000
0.000000
0.000000
0.000000
0.000000
0.000000
0.000000
0.000000
0.000000
0.000000
0.000000
0.000000
0.000000
0.000000
0.000000
0.000000
0.000000
0.000000
0.000000
0.000000
0.000000
0.000000
0.000000
0.000000
0.000000
0.000000
0.000000
0.000000
0.000000
0.000000
0.000000
0.000000
0.000000
0.000000
0.000000
0.000000
0.000000
0.000000
0.000000
0.000000
0.000000
0.000000
0.000000
0.000000
0.000000
0.000000
0.000000
0.000000
0.000000
0.000120
0.000000
0.000000
0.000000
0.000000
0.000000
0.000000
0.000000
0.000000
0.000000
0.000000
0.000000
0.000000
0.000000
0.000000
0.000000
0.000000
0.000000
0.000000
0.000000
0.000000
0.000000
0.000000
0.000000
0.000000
0.000000
0.000000
0.000000
0.000000
0.000000
0.000000
0.000000
0.000000
0.000000
0.000000
0.000000
0.000000
0.000000
0.000000
0.000000
0.000000
0.000000
0.000000
0.000000
0.000000
0.000000
0.000000
0.000000
0.000000
0.000000
0.000000
0.000000
0.000000
0.000000
0.000000
0.000000
0.000000
0.000000
0.000000
0.000000
0.000000
0.000000
0.000000
0.000000
0.000000
0.000000
0.000000
0.000120
0.000120
0.000000
0.000120
0.000120
0.000000
0.000000
0.000120
0.000120
0.000000
0.000000
0.000120
0.000000
0.000000
0.000120
0.000000
0.000000
0.000120
0.000000
0.000000
0.000000
0.000000
0.000000
0.000000
0.000000
0.000000
0.000000
0.000120
0.000120
0.000000
0.000000
0.000000
0.000000
0.000000
0.000000
0.000000
0.000000
0.000000
0.000000
0.000000
0.000000
0.000000
0.000000
0.000000
0.000000
0.000000
0.000000
0.000000
0.000000
0.000000
0.000000
0.000000
0.000000
0.000000
0.000000
0.000000
0.000000
0.000000
0.000000
0.000000
0.000000
0.000000
0.000000
0.000000
0.000000
0.000000
0.000000
0.000000
0.000000
0.000000
0.000000
0.000000
0.000000
0.000000
0.000000
0.000000
0.000000
0.000000
0.000000
0.000000
0.000000
0.000000
0.000000
0.000000
0.000000
0.000000
0.000000
0.000000
0.000000
0.000000
0.000000
0.000000
0.000000
0.000000
0.000000
0.000000
0.000000
0.000000
0.000000
0.000000
0.000000
0.000000
0.000000
0.000000
0.000000
0.000000
0.000000
0.000000
0.000000
0.000000
0.000000
0.000000
0.000000
0.000000
0.000000
0.000000
0.000000
0.000000
0.000000
0.000000
0.000000
0.000000
0.000000
0.000000
0.000000
0.000120
0.000000
0.000000
0.000120
0.000000
0.000000
0.000000
0.000000
0.000000
0.000000
0.000000
0.000000
0.000000
0.000000
0.000000
0.000000
0.000000
0.000000
0.000000
0.000000
0.000000
0.000000
0.000000
0.000000
0.000000
0.000000
0.000000
0.000000
0.000000
-0.000119
0.000000
0.000000
0.000000
0.000000
0.000000
0.000000
0.000000
0.000000
0.000000
0.000000
0.000000
0.000000
0.000000
0.000000
0.000000
0.000000
0.000120
0.000120
0.000120
0.000120
0.000120
0.000000
0.000000
0.000000
0.000000
0.000000
0.000000
0.000000
0.000120
0.000120
0.000120
0.000120
0.000120
0.000120
0.000000
0.000000
0.000000
0.000000
0.000000
0.000000
0.000240
0.000240
0.000120
0.000120
0.000240
0.000120
0.000120
0.000120
0.000240
0.000120
0.000120
0.000240
0.000000
0.000000
0.000120
0.000000
0.000000
0.000120
0.000000
0.000000
0.000000
0.000000
0.000120
0.000120
0.000000
0.000000
0.000000
0.000000
0.000000
0.000000
0.000000
0.000000
0.000000
0.000000
0.000000
0.000000
0.000000
0.000000
0.000000
0.000000
0.000000
0.000000
0.000000
0.000000
0.000000
0.000000
0.000000
0.000000
0.000000
0.000000
0.000000
0.000000
0.000000
0.000000
0.000000
0.000000
0.000000
0.000000
0.000000
0.000000
0.000000
0.000000
0.000000
0.000000
0.000000
0.000000
0.000000
0.000000
0.000000
0.000000
0.000000
0.000000
0.000000
0.000000
0.000000
0.000000
0.000000
0.000000
0.000000
0.000000
0.000000
0.000000
0.000000
0.000000
0.000000
0.000000
0.000000
0.000000
0.000000
0.000000
0.000000
0.000000
0.000000
0.000000
0.000000
0.000000
0.000000
0.000000
0.000000
0.000000
0.000000
0.000000
0.000000
0.000000
0.000000
0.000000
0.000000
0.000000
0.000000
0.000000
0.000000
0.000000
0.000000
0.000000
0.000000
0.000000
0.000000
0.000000
0.000000
0.000000
0.000000
0.000000
0.000000
0.000000
0.000120
0.000120
0.000000
0.000000
0.000000
0.000000
0.000000
0.000000
0.000000
0.000000
0.000000
0.000000
0.000000
0.000000
0.000000
0.000000
0.000000
0.000000
0.000000
0.000000
0.000000
0.000000
0.000000
0.000000
0.000000
0.000000
0.000000
-0.000119
0.000000
0.000000
0.000000
0.000000
0.000000
0.000000
0.000000
0.000000
0.000000
0.000000
0.000000
0.000000
0.000000
0.000000
0.000000
0.000000
0.000120
0.000120
0.000120
0.000120
0.000120
0.000120
0.000120
0.000120
0.000120
0.000120
0.000120
0.000120
0.000000
0.000000
0.000000
0.000000
0.000000
0.000000
0.000000
0.000000
0.000000
0.000000
0.000000
0.000000
0.000000
0.000000
0.000000
-0.000119
0.000000
-0.000119
0.000000
0.000120
0.000120
0.000000
0.000120
0.000120
0.000000
0.000000
0.000120
0.000000
0.000120
0.000120
0.000000
0.000120
0.000120
0.000120
0.000120
0.000120
0.000000
0.000000
0.000000
0.000000
0.000000
0.000000
0.000000
0.000000
0.000000
0.000120
0.000120
0.000120
0.000000
0.000000
0.000000
0.000000
0.000000
0.000000
0.000000
0.000000
0.000000
0.000000
0.000000
0.000000
0.000000
0.000000
0.000000
0.000000
0.000000
0.000000
0.000000
0.000000
0.000000
0.000000
0.000000
0.000000
0.000120
0.000000
0.000120
0.000000
0.000000
0.000000
0.000000
0.000000
0.000000
0.000000
0.000000
0.000000
0.000000
0.000000
0.000000
0.000000
0.000000
0.000000
0.000000
0.000000
0.000000
0.000000
0.000000
0.000000
0.000000
0.000000
0.000000
0.000000
0.000000
0.000000
0.000000
0.000000
0.000000
0.000000
0.000000
0.000000
0.000000
0.000000
0.000000
0.000000
0.000000
0.000000
0.000000
0.000000
0.000000
0.000000
0.000000
0.000000
0.000000
0.000000
0.000000
0.000000
0.000000
0.000000
0.000000
0.000000
0.000000
0.000000
0.000000
0.000000
0.000000
0.000000
0.000120
0.000000
0.000000
0.000120
0.000000
0.000000
0.000120
0.000000
0.000000
0.000000
0.000000
0.000000
0.000000
0.000000
0.000000
0.000000
0.000000
0.000000
0.000000
0.000000
0.000000
0.000000
0.000000
0.000000
0.000000
0.000000
0.000000
0.000000
0.000000
0.000000
0.000000
0.000000
0.000000
0.000000
0.000000
0.000000
0.000000
0.000000
0.000000
0.000000
0.000000
0.000000
0.000000
0.000000
0.000000
0.000000
0.000120
0.000120
0.000000
0.000120
0.000120
0.000120
0.000120
0.000120
0.000120
0.000120
0.000120
0.000120
0.000120
0.000120
0.000120
0.000120
0.000120
0.000120
-0.000119
-0.000119
-0.000119
-0.000119
-0.000119
-0.000119
0.000000
0.000000
0.000000
-0.000119
0.000000
0.000000
-0.000119
0.000000
0.000000
-0.000119
0.000000
0.000000
0.000000
0.000000
0.000120
0.000000
0.000120
0.000120
0.000120
0.000120
0.000120
0.000120
0.000120
0.000120
0.000000
0.000000
0.000000
0.000000
0.000000
0.000000
0.000000
0.000000
0.000000
0.000000
0.000000
0.000000
0.000000
0.000000
0.000000
0.000000
0.000000
0.000000
0.000000
0.000000
0.000000
0.000000
0.000000
0.000000
0.000000
0.000000
0.000000
0.000000
0.000000
0.000000
0.000000
0.000000
0.000000
0.000000
0.000000
0.000000
0.000120
0.000120
0.000120
0.000000
0.000000
0.000000
0.000000
0.000000
0.000000
0.000000
0.000000
0.000000
0.000000
0.000000
0.000000
0.000000
0.000000
0.000000
0.000000
0.000000
0.000000
0.000000
0.000000
0.000000
0.000000
0.000000
0.000000
0.000000
0.000000
0.000000
0.000000
0.000000
0.000000
0.000000
0.000000
0.000000
0.000000
0.000000
0.000000
0.000000
0.000000
0.000000
0.000000
0.000000
0.000000
0.000000
0.000000
0.000000
0.000000
0.000000
0.000000
0.000000
0.000000
0.000000
0.000000
0.000000
0.000000
0.000000
0.000000
0.000000
0.000000
0.000000
0.000120
0.000000
0.000000
0.000000
0.000000
0.000120
0.000120
0.000000
0.000000
0.000000
0.000000
0.000000
0.000000
0.000000
0.000000
0.000000
0.000000
0.000000
0.000000
0.000000
0.000000
0.000000
0.000000
0.000000
0.000000
0.000000
0.000000
0.000000
0.000000
0.000000
0.000000
0.000000
0.000000
0.000000
0.000000
0.000000
0.000000
0.000000
0.000000
0.000000
0.000000
0.000000
0.000000
0.000000
0.000000
0.000000
0.000000
0.000000
0.000000
0.000120
0.000000
0.000000
0.000120
0.000120
0.000120
0.000120
0.000120
0.000120
0.000120
0.000120
0.000120
0.000000
0.000000
0.000000
0.000000
0.000000
0.000000
0.000000
0.000000
0.000000
-0.000119
-0.000119
-0.000119
-0.000119
-0.000119
-0.000119
-0.000119
0.000000
0.000000
-0.000119
0.000000
0.000000
0.000000
0.000120
0.000120
0.000120
0.000120
0.000120
0.000120
0.000120
0.000120
0.000120
0.000120
0.000120
0.000000
0.000000
0.000000
0.000000
0.000000
0.000000
0.000000
0.000000
0.000000
0.000120
0.000120
0.000120
0.000120
0.000000
0.000000
0.000120
0.000120
0.000000
0.000120
0.000120
0.000120
0.000000
0.000000
0.000000
0.000000
0.000000
0.000000
0.000000
0.000000
0.000000
0.000000
0.000000
0.000000
0.000120
0.000120
0.000120
0.000000
0.000000
0.000000
0.000000
0.000000
0.000000
0.000000
0.000000
0.000000
0.000000
0.000000
0.000000
0.000000
0.000000
0.000000
0.000000
0.000000
0.000000
0.000000
0.000000
0.000000
0.000000
0.000000
0.000000
0.000000
0.000000
0.000000
0.000000
0.000000
0.000000
0.000000
0.000000
0.000000
0.000000
0.000000
0.000000
0.000000
0.000000
0.000000
0.000000
0.000000
0.000000
0.000000
0.000000
0.000000
0.000000
0.000000
0.000000
0.000000
0.000000
0.000000
0.000000
0.000000
0.000000
0.000000
0.000000
0.000000
0.000000
0.000000
0.000000
0.000000
0.000000
0.000000
0.000000
0.000000
0.000000
0.000000
0.000000
0.000120
0.000000
0.000000
0.000000
0.000000
0.000000
0.000000
0.000000
0.000000
0.000000
0.000000
0.000000
0.000000
0.000000
0.000000
0.000000
0.000000
0.000000
0.000000
0.000000
0.000000
0.000000
0.000000
0.000000
0.000000
0.000000
0.000000
0.000000
0.000000
0.000000
0.000000
0.000000
0.000000
0.000000
0.000000
0.000000
0.000000
0.000000
0.000000
0.000000
0.000000
0.000000
0.000000
0.000000
0.000000
0.000000
0.000000
0.000000
0.000000
0.000120
0.000120
0.000000
0.000120
0.000120
0.000120
0.000000
0.000000
0.000000
-0.000119
-0.000119
-0.000119
-0.000239
-0.000239
-0.000239
-0.000119
-0.000119
-0.000119
-0.000119
-0.000239
-0.000239
-0.000119
-0.000119
-0.000119
-0.000119
-0.000119
0.000000
0.000120
0.000120
0.000120
0.000120
0.000120
0.000120
0.000120
0.000120
0.000120
0.000120
0.000120
0.000120
0.000000
0.000000
0.000000
0.000000
0.000000
0.000000
0.000000
0.000000
0.000000
0.000120
0.000120
0.000000
0.000120
0.000120
0.000000
0.000120
0.000120
0.000120
0.000120
0.000120
0.000120
0.000000
0.000000
0.000000
0.000000
0.000000
0.000000
0.000000
0.000000
0.000000
0.000000
0.000000
0.000000
0.000120
0.000120
0.000120
0.000000
0.000000
0.000000
0.000000
0.000000
0.000000
0.000000
0.000000
0.000000
0.000000
0.000000
0.000000
0.000000
0.000000
0.000000
0.000000
0.000000
0.000000
0.000000
0.000000
0.000000
0.000000
0.000000
0.000000
0.000000
0.000000
0.000000
0.000000
-0.000119
0.000000
0.000000
0.000000
0.000000
0.000000
0.000000
0.000000
0.000000
0.000000
0.000000
0.000000
0.000000
0.000000
0.000000
0.000000
0.000000
0.000000
0.000000
0.000000
0.000000
0.000000
0.000000
0.000000
0.000000
0.000000
0.000000
0.000000
0.000000
0.000000
0.000000
0.000000
0.000000
0.000000
0.000000
0.000000
0.000000
0.000000
0.000000
0.000000
0.000120
0.000000
0.000000
0.000120
0.000000
0.000000
0.000000
0.000000
0.000000
0.000000
0.000000
0.000000
0.000000
0.000000
0.000000
0.000000
0.000000
0.000000
0.000000
0.000000
0.000000
0.000000
0.000000
0.000000
0.000000
0.000000
0.000000
0.000000
0.000000
0.000000
0.000000
0.000000
0.000000
0.000000
0.000000
0.000000
0.000000
0.000000
0.000000
0.000000
0.000000
0.000000
0.000000
0.000000
0.000000
0.000000
0.000000
0.000000
0.000000
0.000000
0.000000
0.000000
0.000000
0.000000
0.000000
0.000000
0.000000
0.000000
-0.000239
-0.000239
-0.000239
-0.000239
-0.000239
-0.000239
0.000000
-0.000239
-0.000119
-0.000119
-0.000239
-0.000239
0.000000
-0.000119
-0.000119
0.000000
0.000000
0.000000
0.000000
0.000120
0.000000
0.000120
0.000120
0.000000
0.000120
0.000120
0.000000
0.000120
0.000120
0.000120
0.000120
0.000120
0.000120
0.000120
0.000120
0.000120
0.000120
0.000120
0.000120
0.000120
0.000120
0.000000
0.000120
0.000120
0.000000
0.000120
0.000120
0.000120
0.000120
0.000120
0.000120
0.000000
0.000000
0.000000
0.000000
0.000000
0.000000
0.000000
0.000000
0.000000
0.000000
0.000000
0.000000
0.000000
0.000120
0.000000
-0.000119
-0.000119
0.000000
0.000000
0.000000
0.000000
0.000000
0.000000
0.000000
0.000000
0.000000
0.000000
0.000000
0.000000
0.000000
0.000000
0.000000
0.000000
0.000000
0.000000
0.000000
0.000000
0.000000
0.000000
0.000000
0.000000
0.000000
0.000000
0.000000
0.000000
0.000000
0.000000
0.000000
0.000000
0.000000
0.000000
0.000000
0.000000
0.000000
0.000000
0.000000
0.000000
0.000000
0.000000
0.000000
0.000000
0.000000
0.000000
0.000000
0.000000
0.000000
0.000000
0.000000
0.000000
0.000000
0.000000
0.000000
0.000000
0.000000
0.000000
0.000000
0.000000
0.000000
0.000000
0.000000
0.000000
0.000000
0.000000
0.000000
0.000000
0.000000
0.000120
0.000000
0.000000
0.000000
0.000000
0.000000
0.000000
0.000000
0.000000
0.000000
0.000000
0.000000
0.000000
0.000000
0.000000
0.000000
0.000000
0.000000
0.000000
0.000000
0.000000
0.000000
0.000000
0.000000
0.000000
0.000000
0.000000
0.000000
0.000000
0.000000
0.000000
0.000000
0.000000
0.000000
0.000000
0.000000
0.000000
0.000000
0.000000
0.000000
0.000000
0.000000
0.000000
0.000000
0.000000
0.000000
0.000000
0.000000
0.000000
0.000000
0.000000
0.000000
0.000000
0.000000
0.000000
-0.000239
-0.000239
-0.000239
-0.000239
-0.000239
-0.000239
0.000000
-0.000119
-0.000119
0.000000
0.000000
0.000000
0.000000
0.000000
0.000000
0.000000
0.000000
0.000000
0.000120
0.000000
0.000120
0.000120
0.000120
0.000120
0.000120
0.000120
0.000120
0.000120
0.000120
0.000120
0.000120
0.000120
0.000120
0.000120
0.000120
0.000120
0.000120
0.000120
0.000120
0.000120
0.000120
0.000000
0.000120
0.000120
0.000120
0.000120
0.000120
0.000120
0.000000
0.000000
0.000000
0.000000
0.000000
0.000000
0.000000
0.000000
0.000000
0.000000
0.000000
0.000000
0.000000
0.000000
0.000000
0.000000
0.000000
0.000000
0.000000
0.000000
0.000000
0.000000
0.000000
0.000000
0.000000
-0.000119
-0.000119
0.000000
-0.000119
0.000000
0.000000
0.000000
0.000000
0.000000
0.000000
0.000000
0.000000
0.000000
0.000000
0.000000
0.000000
0.000000
0.000000
0.000000
0.000000
0.000000
0.000000
0.000000
0.000000
0.000000
0.000000
0.000000
0.000000
0.000000
0.000000
0.000000
0.000000
0.000000
0.000000
0.000000
0.000000
0.000000
0.000000
0.000000
0.000000
0.000000
0.000000
0.000000
0.000000
0.000000
0.000000
0.000000
0.000000
0.000000
0.000000
0.000000
0.000000
0.000000
0.000000
0.000000
0.000000
0.000000
0.000000
0.000000
0.000000
0.000000
0.000000
0.000000
0.000000
0.000000
0.000000
0.000000
0.000120
0.000000
0.000000
0.000000
0.000000
0.000000
0.000000
0.000000
0.000000
0.000000
0.000000
0.000000
0.000000
0.000000
0.000000
0.000000
0.000000
0.000000
0.000000
0.000000
0.000000
0.000000
0.000000
0.000000
0.000000
0.000000
0.000000
0.000000
0.000000
0.000000
0.000000
0.000000
0.000000
0.000000
0.000000
0.000000
0.000000
0.000000
0.000000
0.000000
0.000000
0.000000
0.000000
0.000000
0.000000
0.000000
0.000000
0.000000
0.000000
0.000000
0.000000
0.000000
-0.000239
-0.000239
-0.000239
-0.000239
-0.000239
-0.000239
0.000000
0.000000
0.000000
0.000000
0.000000
0.000000
0.000000
0.000000
0.000000
0.000000
0.000000
0.000000
0.000120
0.000120
0.000120
0.000120
0.000120
0.000120
0.000120
0.000120
0.000120
0.000120
0.000120
0.000120
0.000120
0.000120
0.000120
0.000120
0.000120
0.000120
0.000120
0.000120
0.000120
0.000120
0.000120
0.000120
0.000120
0.000120
0.000120
0.000120
0.000120
0.000120
0.000000
0.000000
0.000000
0.000000
0.000000
0.000000
0.000000
0.000000
0.000000
0.000000
0.000000
0.000000
0.000000
0.000000
0.000000
0.000000
0.000000
0.000000
0.000000
0.000000
0.000000
0.000000
0.000000
0.000000
0.000000
-0.000119
0.000000
0.000000
0.000000
0.000000
0.000000
0.000000
0.000000
0.000000
0.000000
0.000000
0.000000
0.000000
0.000000
0.000000
0.000000
0.000000
0.000000
0.000000
0.000000
0.000000
0.000000
0.000000
0.000000
0.000000
0.000000
0.000000
0.000000
0.000000
0.000000
0.000000
0.000000
0.000000
0.000000
0.000000
0.000000
0.000000
0.000000
0.000000
0.000000
0.000000
0.000000
0.000000
0.000000
0.000000
0.000000
0.000000
-0.000119
-0.000119
0.000000
0.000000
0.000000
0.000000
0.000000
0.000000
0.000000
0.000000
0.000000
0.000000
0.000000
0.000000
0.000000
0.000000
0.000000
0.000000
0.000000
0.000000
0.000120
0.000000
0.000000
0.000000
0.000000
0.000000
0.000000
0.000000
0.000000
0.000000
0.000000
0.000000
0.000000
0.000000
0.000000
0.000000
0.000000
0.000000
0.000000
0.000000
0.000000
0.000000
0.000000
0.000000
0.000000
0.000000
0.000000
0.000000
0.000000
0.000000
0.000000
0.000000
0.000000
0.000000
0.000000
0.000000
0.000000
0.000000
0.000000
0.000000
0.000000
0.000000
0.000000
0.000120
0.000120
0.000120
0.000000
0.000000
0.000000
0.000000
0.000000
0.000000
-0.000239
-0.000239
-0.000239
-0.000239
-0.000239
-0.000239
0.000120
0.000120
0.000120
0.000120
0.000120
0.000120
0.000120
0.000120
0.000120
0.000120
0.000120
0.000120
0.000120
0.000120
0.000120
0.000120
0.000120
0.000120
0.000120
0.000120
0.000120
0.000000
0.000120
0.000120
0.000000
0.000120
0.000120
0.000120
0.000120
0.000120
0.000120
0.000120
0.000120
0.000120
0.000120
0.000120
0.000120
0.000120
0.000120
0.000120
0.000120
0.000120
0.000120
0.000120
0.000120
0.000000
0.000000
0.000000
0.000120
0.000120
0.000120
0.000120
0.000120
0.000120
0.000000
0.000000
0.000000
0.000000
0.000000
0.000000
0.000000
0.000000
0.000000
0.000000
-0.000119
0.000000
0.000000
-0.000119
0.000000
0.000000
0.000000
0.000000
0.000000
0.000000
0.000000
0.000000
0.000000
0.000000
0.000000
0.000000
0.000000
0.000000
0.000000
0.000000
0.000000
0.000000
0.000000
0.000000
0.000000
0.000000
0.000000
0.000000
0.000000
0.000000
0.000000
0.000000
0.000000
0.000000
0.000000
0.000000
0.000000
0.000000
0.000000
0.000000
0.000000
0.000000
0.000000
0.000000
0.000000
0.000000
0.000000
0.000000
0.000000
0.000000
0.000000
0.000000
0.000000
-0.000119
0.000000
0.000000
0.000000
0.000000
0.000000
0.000000
0.000000
0.000000
0.000000
0.000000
0.000000
0.000000
0.000000
0.000000
0.000000
0.000000
0.000120
0.000000
0.000000
0.000000
0.000000
0.000000
0.000000
0.000000
0.000000
0.000000
0.000000
0.000000
0.000000
0.000000
0.000000
0.000000
0.000000
0.000000
0.000000
0.000000
0.000000
0.000000
0.000000
0.000000
0.000000
0.000000
0.000000
0.000000
0.000000
0.000000
0.000000
0.000000
0.000000
0.000000
0.000000
0.000000
0.000000
0.000000
0.000000
0.000000
0.000120
0.000120
0.000120
0.000120
0.000120
0.000120
0.000000
-0.000119
-0.000119
0.000000
-0.000119
0.000000
-0.000119
-0.000119
-0.000119
-0.000239
-0.000239
-0.000239
0.000240
0.000120
0.000120
0.000120
0.000120
0.000120
0.000120
0.000120
0.000120
0.000120
0.000120
0.000120
0.000120
0.000120
0.000120
0.000120
0.000120
0.000120
0.000120
0.000120
0.000120
0.000120
0.000120
0.000120
0.000120
0.000120
0.000120
0.000000
0.000000
0.000000
0.000120
0.000120
0.000120
0.000120
0.000120
0.000120
0.000120
0.000120
0.000120
0.000120
0.000000
0.000120
0.000120
0.000120
0.000120
0.000120
0.000120
0.000120
0.000120
0.000120
0.000120
0.000120
0.000120
0.000120
0.000000
0.000000
0.000000
0.000000
0.000000
0.000000
0.000000
0.000000
0.000000
0.000000
0.000000
0.000000
0.000000
0.000000
0.000000
0.000000
0.000000
0.000000
0.000000
0.000000
0.000000
0.000000
0.000000
0.000000
0.000000
0.000000
0.000000
0.000000
0.000000
0.000000
0.000000
0.000000
0.000000
0.000000
0.000000
0.000000
0.000000
0.000000
0.000000
0.000000
0.000000
0.000000
0.000000
0.000000
0.000000
0.000000
0.000000
0.000000
0.000000
0.000000
0.000000
0.000000
0.000000
0.000000
0.000000
0.000000
0.000000
0.000000
0.000000
0.000000
0.000000
0.000000
0.000000
0.000000
0.000000
0.000000
-0.000119
0.000000
0.000000
0.000000
0.000000
0.000000
0.000000
0.000000
0.000000
0.000000
0.000000
0.000000
0.000000
0.000000
0.000000
0.000000
0.000000
0.000000
0.000000
0.000000
0.000000
0.000000
0.000000
0.000000
0.000000
0.000000
0.000000
0.000000
0.000000
0.000000
0.000000
0.000000
0.000000
0.000000
0.000000
0.000000
0.000000
0.000000
0.000000
0.000000
0.000000
0.000000
0.000000
0.000000
0.000000
0.000120
0.000120
0.000000
-0.000119
0.000000
0.000000
0.000000
0.000000
0.000000
0.000120
0.000120
0.000120
0.000120
0.000120
0.000120
0.000000
0.000000
0.000000
0.000000
-0.000119
0.000000
-0.000119
-0.000119
-0.000119
-0.000239
-0.000239
-0.000239
0.000120
0.000120
0.000120
0.000120
0.000120
0.000120
0.000120
0.000120
0.000120
0.000120
0.000120
0.000120
0.000120
0.000120
0.000120
0.000120
0.000120
0.000120
0.000000
0.000000
0.000120
0.000000
0.000000
0.000120
0.000120
0.000120
0.000120
0.000120
0.000000
0.000000
0.000120
0.000120
0.000120
0.000120
0.000120
0.000120
0.000000
0.000000
0.000000
0.000120
0.000120
0.000120
0.000120
0.000120
0.000120
0.000120
0.000120
0.000120
0.000120
0.000120
0.000120
0.000120
0.000120
0.000120
0.000000
0.000000
0.000000
0.000000
0.000000
0.000000
0.000000
0.000000
0.000000
0.000000
0.000000
0.000000
0.000000
0.000000
0.000000
0.000000
0.000000
0.000000
0.000000
0.000000
0.000000
0.000000
0.000000
0.000000
0.000000
0.000000
0.000000
0.000000
0.000000
0.000000
0.000000
0.000000
0.000000
0.000000
0.000000
0.000000
0.000000
0.000000
0.000000
0.000000
0.000000
0.000000
0.000000
0.000000
0.000000
0.000000
0.000000
0.000000
0.000000
0.000000
0.000000
0.000000
0.000000
0.000000
0.000000
0.000000
0.000000
0.000000
0.000000
0.000000
0.000000
0.000000
0.000000
0.000000
0.000000
0.000000
0.000000
0.000000
0.000000
0.000000
0.000000
0.000000
0.000000
0.000000
0.000000
0.000000
0.000000
0.000000
0.000000
0.000000
0.000000
0.000000
0.000000
0.000000
0.000000
0.000000
0.000000
-0.000119
0.000000
0.000000
0.000000
0.000000
0.000000
-0.000119
-0.000119
0.000000
0.000000
0.000000
0.000120
0.000000
0.000000
0.000000
0.000000
0.000000
0.000000
0.000000
0.000000
0.000000
0.000120
0.000120
0.000000
0.000120
0.000120
0.000120
0.000000
0.000000
0.000000
0.000000
0.000000
0.000000
0.000120
0.000120
0.000120
0.000120
0.000120
0.000120
0.000000
0.000000
0.000000
-0.000119
-0.000119
0.000000
-0.000119
-0.000119
0.000000
-0.000239
-0.000239
-0.000239
0.000120
0.000120
0.000120
0.000120
0.000120
0.000120
0.000240
0.000120
0.000120
0.000120
0.000120
0.000120
0.000120
0.000120
0.000120
0.000120
0.000120
0.000120
0.000000
0.000000
0.000120
0.000000
0.000000
0.000120
0.000120
0.000120
0.000120
0.000120
0.000120
0.000120
0.000120
0.000120
0.000120
0.000120
0.000120
0.000000
0.000120
0.000120
0.000120
0.000120
0.000120
0.000120
0.000120
0.000120
0.000120
0.000120
0.000120
0.000120
0.000120
0.000120
0.000120
0.000120
0.000120
0.000120
0.000000
0.000000
0.000000
0.000000
0.000000
0.000000
0.000000
0.000000
0.000000
0.000000
0.000000
0.000000
0.000000
0.000000
0.000000
0.000000
0.000000
0.000000
0.000000
0.000000
0.000000
0.000000
0.000000
0.000000
0.000000
0.000000
0.000000
0.000000
0.000000
0.000000
0.000000
0.000000
0.000000
0.000000
0.000000
0.000000
0.000000
0.000000
0.000000
0.000000
0.000000
0.000000
0.000000
0.000000
0.000000
0.000000
0.000000
0.000000
0.000000
0.000000
0.000000
0.000000
0.000000
0.000000
0.000000
0.000000
0.000000
0.000000
0.000000
0.000000
0.000000
0.000000
0.000000
0.000000
0.000000
0.000000
0.000000
0.000000
0.000000
0.000000
0.000000
0.000000
0.000000
0.000000
0.000000
0.000000
0.000000
0.000000
0.000000
0.000000
0.000000
0.000000
0.000000
0.000000
0.000000
0.000000
0.000000
0.000000
-0.000119
0.000000
0.000000
0.000000
0.000000
0.000000
0.000000
0.000000
0.000000
0.000000
0.000120
0.000000
0.000000
0.000000
0.000000
0.000000
0.000000
0.000000
0.000000
0.000000
0.000120
0.000120
0.000120
0.000240
0.000240
0.000240
0.000000
0.000000
0.000000
0.000000
0.000000
0.000000
0.000120
0.000120
0.000120
0.000120
0.000120
0.000120
0.000000
0.000000
0.000000
-0.000119
-0.000119
-0.000119
-0.000239
-0.000239
-0.000119
-0.000239
-0.000239
-0.000239
0.000120
0.000120
0.000120
0.000120
0.000120
0.000120
0.000120
0.000120
0.000120
0.000120
0.000120
0.000120
0.000120
0.000120
0.000120
0.000120
0.000120
0.000120
0.000000
0.000000
0.000120
0.000000
0.000000
0.000120
0.000120
0.000120
0.000120
0.000120
0.000120
0.000120
0.000120
0.000120
0.000120
0.000000
0.000000
0.000000
0.000120
0.000120
0.000120
0.000120
0.000120
0.000120
0.000120
0.000120
0.000120
0.000120
0.000120
0.000120
0.000120
0.000120
0.000120
0.000000
0.000000
0.000000
0.000000
0.000000
0.000000
0.000000
0.000000
0.000000
0.000000
0.000000
0.000000
0.000000
0.000000
0.000000
0.000000
0.000000
0.000000
0.000000
0.000000
0.000000
0.000000
0.000000
0.000000
0.000000
0.000000
0.000000
0.000000
0.000000
0.000000
0.000000
0.000000
0.000000
0.000000
0.000000
0.000000
0.000000
0.000000
0.000000
0.000000
0.000000
0.000000
0.000000
0.000000
0.000000
0.000000
0.000000
0.000000
0.000000
0.000000
0.000000
0.000000
0.000000
0.000000
0.000000
0.000000
0.000000
0.000000
0.000000
0.000000
0.000000
0.000000
0.000000
0.000000
0.000000
0.000000
0.000000
0.000000
0.000000
0.000000
0.000000
0.000000
0.000000
0.000000
0.000000
0.000000
0.000000
0.000000
0.000000
0.000000
0.000000
0.000000
0.000000
0.000000
0.000000
0.000000
0.000000
0.000000
0.000000
0.000000
0.000000
0.000000
0.000000
0.000000
0.000000
0.000000
0.000000
0.000000
0.000000
0.000000
0.000120
0.000120
0.000000
0.000000
0.000000
0.000240
0.000120
0.000120
0.000240
0.000120
0.000120
0.000240
0.000359
0.000359
0.000240
0.000359
0.000359
0.000000
0.000000
0.000120
0.000000
0.000000
0.000000
0.000000
0.000000
0.000000
0.000120
0.000120
0.000120
0.000120
0.000000
0.000120
-0.000119
-0.000119
0.000000
0.000000
-0.000119
-0.000119
-0.000119
-0.000239
0.000000
0.000120
0.000120
0.000120
0.000120
0.000120
0.000120
0.000120
0.000120
0.000120
0.000120
0.000120
0.000120
0.000120
0.000120
0.000120
0.000120
0.000120
0.000120
0.000000
0.000000
0.000120
0.000000
0.000000
0.000120
0.000120
0.000120
0.000120
0.000120
0.000120
0.000120
0.000120
0.000120
0.000120
0.000120
0.000120
0.000000
0.000120
0.000120
0.000120
0.000120
0.000120
0.000120
0.000120
0.000000
0.000000
0.000120
0.000120
0.000120
0.000120
0.000120
0.000120
0.000000
0.000000
0.000000
0.000000
0.000000
0.000000
0.000000
0.000000
0.000000
0.000000
0.000000
0.000000
0.000000
0.000000
0.000000
0.000000
0.000000
0.000000
0.000000
0.000000
0.000000
0.000000
0.000000
0.000000
0.000000
0.000000
0.000000
0.000000
0.000000
0.000000
0.000000
0.000000
0.000000
0.000120
0.000120
0.000000
0.000120
0.000000
0.000000
0.000000
0.000000
0.000000
0.000000
0.000000
0.000000
0.000000
0.000000
0.000000
0.000000
0.000000
0.000000
0.000000
0.000000
0.000000
0.000000
0.000000
0.000000
0.000000
0.000000
0.000000
0.000000
0.000000
0.000000
0.000000
0.000000
0.000000
0.000000
0.000000
0.000000
0.000000
0.000000
0.000000
0.000000
0.000000
0.000000
0.000000
0.000000
0.000000
0.000000
0.000000
0.000000
0.000000
0.000000
0.000000
0.000000
0.000000
0.000000
0.000000
0.000000
0.000000
0.000000
0.000000
0.000000
0.000000
0.000000
0.000000
0.000000
0.000000
0.000000
0.000120
0.000120
0.000120
0.000240
0.000240
0.000240
0.000240
0.000240
0.000120
0.000240
0.000240
0.000120
0.000240
0.000240
0.000240
0.000120
0.000240
0.000240
0.000000
0.000120
0.000120
0.000000
0.000000
0.000120
0.000000
0.000000
0.000000
0.000000
0.000000
0.000000
0.000120
0.000120
0.000120
0.000000
-0.000119
0.000000
0.000000
-0.000119
0.000000
-0.000119
-0.000239
0.000000
0.000120
0.000120
0.000120
0.000120
0.000120
0.000120
0.000120
0.000120
0.000120
0.000120
0.000120
0.000120
0.000120
0.000120
0.000120
0.000120
0.000120
0.000120
0.000120
0.000120
0.000120
0.000120
0.000000
0.000120
0.000120
0.000120
0.000120
0.000120
0.000120
0.000120
0.000120
0.000120
0.000120
0.000120
0.000120
0.000120
0.000120
0.000120
0.000120
0.000000
0.000000
0.000000
0.000120
0.000120
0.000120
0.000120
0.000120
0.000120
0.000120
0.000120
0.000120
0.000000
0.000000
0.000000
0.000000
0.000000
0.000000
0.000000
0.000000
0.000000
0.000000
0.000000
0.000000
0.000000
0.000000
0.000000
0.000000
0.000000
0.000000
0.000000
0.000000
0.000000
0.000000
0.000000
0.000000
0.000000
0.000000
0.000000
0.000000
0.000000
0.000000
0.000000
0.000000
0.000000
0.000000
0.000000
0.000000
0.000000
0.000000
0.000000
0.000000
0.000000
0.000000
0.000000
0.000000
0.000000
0.000000
0.000000
0.000000
0.000000
0.000000
0.000000
0.000000
0.000000
0.000000
0.000000
0.000000
0.000000
0.000000
0.000000
0.000000
0.000000
0.000000
0.000000
0.000000
0.000000
0.000000
0.000000
0.000000
0.000000
0.000000
0.000000
0.000000
0.000000
0.000000
0.000000
0.000000
0.000000
0.000120
0.000000
0.000000
0.000000
0.000000
0.000000
0.000000
0.000000
0.000000
0.000000
0.000000
0.000000
0.000000
0.000000
0.000000
0.000000
0.000000
0.000000
0.000000
0.000000
0.000000
0.000000
0.000120
0.000120
0.000120
0.000240
0.000240
0.000240
0.000240
0.000240
0.000240
0.000240
0.000240
0.000240
0.000240
0.000240
0.000240
0.000240
0.000240
0.000240
0.000240
0.000240
0.000240
0.000000
0.000120
0.000120
0.000000
0.000000
0.000120
0.000000
0.000000
0.000000
-0.000239
-0.000119
0.000000
0.000000
-0.000119
-0.000119
-0.000239
-0.000239
0.000000
-0.000239
-0.000239
0.000000
0.000120
0.000120
0.000120
0.000120
0.000120
0.000120
0.000120
0.000120
0.000120
0.000120
0.000120
0.000120
0.000120
0.000120
0.000120
0.000120
0.000120
0.000120
0.000120
0.000120
0.000120
0.000120
0.000120
0.000120
0.000120
0.000120
0.000120
0.000120
0.000120
0.000120
0.000120
0.000120
0.000120
0.000120
0.000120
0.000120
0.000000
0.000000
0.000000
0.000120
0.000120
0.000120
0.000120
0.000120
0.000120
0.000120
0.000120
0.000120
0.000120
0.000120
0.000120
0.000000
0.000000
0.000000
0.000000
0.000000
0.000000
0.000000
0.000000
0.000000
0.000000
0.000000
0.000000
0.000000
0.000000
0.000000
0.000000
0.000000
0.000000
0.000000
0.000000
0.000000
0.000000
0.000000
0.000000
0.000000
0.000000
0.000000
0.000000
0.000000
0.000000
0.000000
0.000000
0.000000
0.000000
0.000000
0.000000
0.000000
0.000000
0.000000
0.000000
0.000000
0.000000
0.000000
0.000000
0.000000
0.000000
0.000000
0.000000
0.000000
0.000000
0.000000
0.000000
0.000000
0.000000
0.000000
0.000000
0.000000
0.000000
0.000000
0.000000
0.000000
0.000000
0.000000
0.000000
0.000000
0.000000
0.000000
0.000000
0.000000
0.000000
0.000000
0.000000
0.000000
0.000000
0.000000
0.000000
0.000000
0.000000
0.000000
0.000000
0.000000
0.000000
0.000000
0.000000
0.000000
0.000000
0.000000
0.000000
0.000000
0.000000
0.000000
0.000000
0.000000
0.000000
0.000000
0.000000
0.000000
0.000000
0.000000
0.000240
0.000240
0.000240
0.000240
0.000240
0.000240
0.000240
0.000240
0.000240
0.000240
0.000240
0.000240
0.000240
0.000240
0.000240
0.000240
0.000240
0.000240
0.000001
0.000240
0.000240
0.000120
0.000120
0.000120
0.000000
0.000000
0.000120
-0.000119
-0.000119
0.000000
-0.000119
-0.000239
-0.000119
-0.000119
-0.000119
0.000000
-0.000239
-0.000239
0.000000
-0.000239
-0.000239
0.000000
0.000120
0.000120
0.000120
0.000120
0.000120
0.000120
0.000120
0.000120
0.000120
0.000120
0.000120
0.000120
0.000120
0.000120
0.000120
0.000120
0.000120
0.000120
0.000120
0.000120
0.000120
0.000120
0.000120
0.000120
0.000120
0.000120
0.000120
0.000120
0.000120
0.000120
0.000120
0.000120
0.000120
0.000120
0.000120
0.000120
0.000000
0.000000
0.000000
0.000120
0.000120
0.000120
0.000120
0.000120
0.000120
0.000120
0.000120
0.000120
0.000120
0.000120
0.000120
0.000000
0.000000
0.000000
0.000000
0.000000
0.000000
0.000000
0.000000
0.000000
0.000000
0.000000
0.000000
0.000000
0.000000
0.000000
0.000000
0.000000
0.000000
0.000000
0.000000
0.000000
0.000000
0.000000
0.000000
0.000000
0.000000
0.000000
0.000000
0.000000
0.000000
0.000000
0.000000
0.000000
0.000000
0.000000
0.000000
0.000000
0.000000
0.000000
0.000000
0.000000
0.000000
0.000000
0.000000
0.000000
0.000000
0.000000
0.000000
0.000000
0.000000
0.000000
0.000000
0.000000
0.000000
0.000000
0.000000
0.000000
0.000000
0.000000
0.000000
0.000000
0.000000
0.000000
0.000000
0.000000
0.000000
0.000000
0.000000
0.000000
0.000000
0.000000
0.000000
0.000000
0.000000
0.000000
0.000000
0.000000
0.000000
0.000000
0.000000
0.000000
0.000000
0.000000
0.000000
0.000000
0.000000
0.000000
0.000000
0.000000
0.000000
0.000000
0.000000
0.000000
0.000000
0.000000
0.000000
0.000000
0.000000
0.000000
0.000120
0.000120
0.000120
0.000240
0.000240
0.000240
0.000240
0.000240
0.000240
0.000240
0.000240
0.000240
0.000240
0.000240
0.000240
0.000240
0.000240
0.000240
0.000001
0.000240
0.000240
0.000120
0.000120
0.000120
0.000000
0.000000
0.000120
-0.000119
-0.000119
0.000000
-0.000119
-0.000239
-0.000119
-0.000119
-0.000119
0.000000
-0.000239
